{"learner":{"attributes":{"scikit_learn":"{\"_estimator_type\": \"classifier\"}"},"feature_names":[],"feature_types":[],"gradient_booster":{"model":{"cats":{"enc":[],"feature_segments":[],"sorted_idx":[]},"gbtree_model_param":{"num_parallel_tree":"1","num_trees":"100"},"iteration_indptr":[0,1,2,3,4,5,6,7,8,9,10,11,12,13,14,15,16,17,18,19,20,21,22,23,24,25,26,27,28,29,30,31,32,33,34,35,36,37,38,39,40,41,42,43,44,45,46,47,48,49,50,51,52,53,54,55,56,57,58,59,60,61,62,63,64,65,66,67,68,69,70,71,72,73,74,75,76,77,78,79,80,81,82,83,84,85,86,87,88,89,90,91,92,93,94,95,96,97,98,99,100],"tree_info":[0,0,0,0,0,0,0,0,0,0,0,0,0,0,0,0,0,0,0,0,0,0,0,0,0,0,0,0,0,0,0,0,0,0,0,0,0,0,0,0,0,0,0,0,0,0,0,0,0,0,0,0,0,0,0,0,0,0,0,0,0,0,0,0,0,0,0,0,0,0,0,0,0,0,0,0,0,0,0,0,0,0,0,0,0,0,0,0,0,0,0,0,0,0,0,0,0,0,0,0],"trees":[{"base_weights":[1.0891666E-8,-1.4515885E0,1.6764773E-1,-2.0410453E-1,2.6576469E-2,-6.3262004E-1,3.9746428E-1,5.857908E-1,-1.2997243E0,5.877544E-1,-9.135311E-1,-2.1744383E-2,9.538136E-2,1.2228222E-2,-2.1679269E-1,-9.195918E-2,7.7327184E-2,-1.5610068E-1,3.7663136E-2],"categories":[],"categories_nodes":[],"categories_segments":[],"categories_sizes":[],"default_left":[0,0,0,0,0,0,0,0,0,0,0,0,0,0,0,0,0,0,0],"id":0,"left_children":[1,3,5,-1,-1,7,9,11,13,15,17,-1,-1,-1,-1,-1,-1,-1,-1],"loss_changes":[1.089746E1,5.2357874E0,7.6344643E0,0E0,0E0,8.3546915E0,8.470461E0,1.3882388E0,8.101655E0,8.647021E0,4.2821703E0,0E0,0E0,0E0,0E0,0E0,0E0,0E0,0E0],"parents":[2147483647,0,0,1,1,2,2,5,5,6,6,7,7,8,8,9,9,10,10],"right_children":[2,4,6,-1,-1,8,10,12,14,16,18,-1,-1,-1,-1,-1,-1,-1,-1],"split_conditions":[-1.3863183E0,8.214769E-1,-9.7081167E-1,-2.0410453E-1,2.6576469E-2,-3.8541695E-1,1.3509394E0,-5.791555E-1,-2.1883427E-1,-1.1883888E0,-4.3526664E-2,-2.1744383E-2,9.538136E-2,1.2228222E-2,-2.1679269E-1,-9.195918E-2,7.7327184E-2,-1.5610068E-1,3.7663136E-2],"split_indices":[25,15,37,0,0,5,23,6,27,9,30,0,0,0,0,0,0,0,0],"split_type":[0,0,0,0,0,0,0,0,0,0,0,0,0,0,0,0,0,0,0],"sum_hessian":[4.278E1,3.6363E0,3.91437E1,2.5668E0,1.0695E0,8.3421E0,3.08016E1,2.9946E0,5.3475E0,2.73792E1,3.4224E0,1.0695E0,1.9251E0,2.3529E0,2.9946E0,2.5668E0,2.48124E1,2.139E0,1.2834E0],"tree_param":{"num_deleted":"0","num_feature":"42","num_nodes":"19","size_leaf_vector":"1"}},{"base_weights":[-8.060204E-3,-1.2928997E0,1.4760086E-1,-1.7971897E-1,2.5343556E-2,7.337212E-1,-1.5065561E-1,1.0172116E0,-2.8256238E-1,1.0025027E0,-4.2211804E-1,-2.287226E-2,1.1755713E-1,-1.6328983E-1,8.825933E-2,1.1224677E-1,2.5877932E-2,-1.0235188E-1,1.3827858E-2],"categories":[],"categories_nodes":[],"categories_segments":[],"categories_sizes":[],"default_left":[0,0,0,0,0,0,0,0,0,0,0,0,0,0,0,0,0,0,0],"id":1,"left_children":[1,3,5,-1,-1,7,9,11,13,15,17,-1,-1,-1,-1,-1,-1,-1,-1],"loss_changes":[8.898383E0,4.2041216E0,7.0560255E0,0E0,0E0,4.1969013E0,8.925674E0,2.4051723E0,7.32902E0,1.977334E-1,7.7883344E0,0E0,0E0,0E0,0E0,0E0,0E0,0E0,0E0],"parents":[2147483647,0,0,1,1,2,2,5,5,6,6,7,7,8,8,9,9,10,10],"right_children":[2,4,6,-1,-1,8,10,12,14,16,18,-1,-1,-1,-1,-1,-1,-1,-1],"split_conditions":[-1.3863183E0,8.214769E-1,-6.306297E-1,-1.7971897E-1,2.5343556E-2,1.0739713E0,-1.2923934E0,-1.1520848E0,5.7226934E-2,2.7976775E-1,-4.426717E-2,-2.287226E-2,1.1755713E-1,-1.6328983E-1,8.825933E-2,1.1224677E-1,2.5877932E-2,-1.0235188E-1,1.3827858E-2],"split_indices":[25,15,23,0,0,13,40,17,39,12,32,0,0,0,0,0,0,0,0],"split_type":[0,0,0,0,0,0,0,0,0,0,0,0,0,0,0,0,0,0,0],"sum_hessian":[4.2537865E1,3.8071842E0,3.8730682E1,2.74859E0,1.058594E0,1.2569542E1,2.616114E1,9.827317E0,2.742225E0,4.4718757E0,2.1689264E1,1.0581033E0,8.769214E0,1.0842319E0,1.657993E0,3.412219E0,1.0596567E0,1.0063259E1,1.1626005E1],"tree_param":{"num_deleted":"0","num_feature":"42","num_nodes":"19","size_leaf_vector":"1"}},{"base_weights":[-7.5644883E-3,-7.474205E-1,2.2000617E-1,4.976308E-1,-1.2463397E0,5.702966E-1,-3.6861262E-1,8.821165E-2,-2.4449771E-2,-1.9797136E-1,3.463012E-2,7.978845E-1,-5.7521945E-1,8.148179E-1,-8.046517E-1,-1.0457218E-1,8.8851996E-2,-3.7446048E-2,9.593122E-2,-1.2067284E-1,7.020313E-2,1.9132202E-2,9.5559776E-2,-1.2580734E-1,9.186527E-2],"categories":[],"categories_nodes":[],"categories_segments":[],"categories_sizes":[],"default_left":[0,0,0,0,0,0,0,0,0,0,0,0,0,0,0,0,0,0,0,0,0,0,0,0,0],"id":2,"left_children":[1,3,5,7,9,11,13,-1,-1,-1,15,17,19,21,23,-1,-1,-1,-1,-1,-1,-1,-1,-1,-1],"loss_changes":[7.4667735E0,7.0989246E0,7.208473E0,1.2709699E0,7.3315487E0,6.1086974E0,7.503394E0,0E0,0E0,0E0,4.432417E0,3.8599424E0,4.213064E0,1.7440772E-1,9.126171E0,0E0,0E0,0E0,0E0,0E0,0E0,0E0,0E0,0E0,0E0],"parents":[2147483647,0,0,1,1,2,2,3,3,4,4,5,5,6,6,10,10,11,11,12,12,13,13,14,14],"right_children":[2,4,6,8,10,12,14,-1,-1,-1,16,18,20,22,24,-1,-1,-1,-1,-1,-1,-1,-1,-1,-1],"split_conditions":[-9.7081167E-1,-5.3387517E-1,6.172939E-1,-6.320605E-1,-1.4823152E-1,1.3066376E0,-8.846114E-1,8.821165E-2,-2.4449771E-2,-1.9797136E-1,-6.7055386E-1,-1.1883888E0,1.0202659E-1,-9.263392E-1,9.7507584E-1,-1.0457218E-1,8.8851996E-2,-3.7446048E-2,9.593122E-2,-1.2067284E-1,7.020313E-2,1.9132202E-2,9.5559776E-2,-1.2580734E-1,9.186527E-2],"split_indices":[37,5,23,13,2,16,40,0,0,0,17,9,8,38,30,0,0,0,0,0,0,0,0,0,0],"split_type":[0,0,0,0,0,0,0,0,0,0,0,0,0,0,0,0,0,0,0,0,0,0,0,0,0],"sum_hessian":[4.2370895E1,9.429679E0,3.2941216E1,2.6984034E0,6.7312756E0,2.0670946E1,1.227027E1,1.6532491E0,1.0451542E0,3.9336965E0,2.797579E0,1.7497969E1,3.1729767E0,3.0698557E0,9.200415E0,1.1358417E0,1.6617374E0,1.958072E0,1.5539898E1,2.1601512E0,1.0128256E0,1E0,2.0698557E0,7.4976563E0,1.7027578E0],"tree_param":{"num_deleted":"0","num_feature":"42","num_nodes":"25","size_leaf_vector":"1"}},{"base_weights":[-6.216535E-3,-1.092263E0,1.320247E-1,-1.5086183E-1,2.4110883E-2,2.6339728E-1,-8.6050457E-1,-9.6247816E-1,4.151899E-1,2.7919395E-2,-1.2621238E0,-1.678406E-1,1.4551959E-2,-3.354001E-2,7.243849E-2,-1.6105046E-2,-1.6565837E-1],"categories":[],"categories_nodes":[],"categories_segments":[],"categories_sizes":[],"default_left":[0,0,0,0,0,0,0,0,0,0,0,0,0,0,0,0,0],"id":3,"left_children":[1,3,5,-1,-1,7,9,11,13,-1,15,-1,-1,-1,-1,-1,-1],"loss_changes":[6.605966E0,3.1215606E0,5.321246E0,0E0,0E0,6.9626465E0,2.5501115E0,3.565936E0,7.6886725E0,0E0,1.3538914E0,0E0,0E0,0E0,0E0,0E0,0E0],"parents":[2147483647,0,0,1,1,2,2,5,5,6,6,7,7,8,8,10,10],"right_children":[2,4,6,-1,-1,8,10,12,14,-1,16,-1,-1,-1,-1,-1,-1],"split_conditions":[-1.3863183E0,8.214769E-1,1.3509394E0,-1.5086183E-1,2.4110883E-2,-1.1883888E0,-2.156719E-1,-1.03158034E-1,-8.3336025E-1,2.7919395E-2,-6.1178833E-1,-1.678406E-1,1.4551959E-2,-3.354001E-2,7.243849E-2,-1.6105046E-2,-1.6565837E-1],"split_indices":[25,15,23,0,0,9,5,8,37,0,38,0,0,0,0,0,0],"split_type":[0,0,0,0,0,0,0,0,0,0,0,0,0,0,0,0,0],"sum_hessian":[4.203926E1,3.9676437E0,3.8071617E1,2.9233692E0,1.0442746E0,3.4270184E1,3.8014302E0,3.1874697E0,3.1082716E1,1.069963E0,2.7314672E0,1.6235865E0,1.5638832E0,9.0437355E0,2.203898E1,1.0918945E0,1.6395729E0],"tree_param":{"num_deleted":"0","num_feature":"42","num_nodes":"17","size_leaf_vector":"1"}},{"base_weights":[-1.39377685E-2,1.9426677E-1,-7.104727E-1,3.5736868E-1,-9.566797E-1,1.6376002E-1,-1.15472E0,7.6879776E-1,-1.06449835E-1,-1.5251778E-1,1.0719465E-2,-1.0150125E-1,9.2077024E-2,-1.5480397E0,3.4139868E-2,9.066525E-2,-4.5397986E-2,-1.4502296E-1,2.3617031E-2,-1.8020204E-1,-4.11652E-2],"categories":[],"categories_nodes":[],"categories_segments":[],"categories_sizes":[],"default_left":[0,0,0,0,0,0,0,0,0,0,0,0,0,0,0,0,0,0,0,0,0],"id":4,"left_children":[1,3,5,7,9,11,13,15,17,-1,-1,-1,-1,19,-1,-1,-1,-1,-1,-1,-1],"loss_changes":[6.312414E0,6.6424127E0,4.0777082E0,5.830594E0,2.8475637E0,4.726514E0,4.5082684E0,3.123125E0,7.266735E0,0E0,0E0,0E0,0E0,8.5597897E-1,0E0,0E0,0E0,0E0,0E0,0E0,0E0],"parents":[2147483647,0,0,1,1,2,2,3,3,4,4,5,5,6,6,7,7,8,8,13,13],"right_children":[2,4,6,8,10,12,14,16,18,-1,-1,-1,-1,20,-1,-1,-1,-1,-1,-1,-1],"split_conditions":[1.0629894E0,1.4470092E0,-5.8446754E-2,-3.597616E-2,3.5605934E-1,-6.858114E-1,9.7147864E-1,1.3464625E0,-1.1520848E0,-1.5251778E-1,1.0719465E-2,-1.0150125E-1,9.2077024E-2,2.798636E-1,3.4139868E-2,9.066525E-2,-4.5397986E-2,-1.4502296E-1,2.3617031E-2,-1.8020204E-1,-4.11652E-2],"split_indices":[20,9,23,38,19,39,33,15,17,0,0,0,0,25,0,0,0,0,0,0,0],"split_type":[0,0,0,0,0,0,0,0,0,0,0,0,0,0,0,0,0,0,0,0,0],"sum_hessian":[4.157564E1,3.2563137E1,9.012505E0,2.9125263E1,3.4378734E0,3.2493992E0,5.763106E0,1.5085853E1,1.403941E1,1.9579856E0,1.4798878E0,1.1374345E0,2.1119647E0,4.5359344E0,1.2271712E0,1.37897415E1,1.2961112E0,2.19555E0,1.184386E1,3.2286031E0,1.3073316E0],"tree_param":{"num_deleted":"0","num_feature":"42","num_nodes":"21","size_leaf_vector":"1"}},{"base_weights":[-2.1300266E-2,8.611798E-1,-1.7514592E-1,1.1001599E-1,-1.8890362E-2,4.5207793E-1,-4.5885116E-1,-8.127823E-1,9.6435374E-1,-6.7405444E-1,4.5123973E-1,1.257419E-2,-1.4731684E-1,1.1532481E-1,-2.5968138E-2,-9.1163E-2,4.5942534E-2,-4.7969066E-2,1.0117181E-1],"categories":[],"categories_nodes":[],"categories_segments":[],"categories_sizes":[],"default_left":[0,0,0,0,0,0,0,0,0,0,0,0,0,0,0,0,0,0,0],"id":5,"left_children":[1,3,5,-1,-1,7,9,11,13,15,17,-1,-1,-1,-1,-1,-1,-1,-1],"loss_changes":[5.8646936E0,1.818121E0,6.7326274E0,0E0,0E0,8.510211E0,5.3464575E0,2.6519456E0,2.3675232E0,6.133793E0,3.3667884E0,0E0,0E0,0E0,0E0,0E0,0E0,0E0,0E0],"parents":[2147483647,0,0,1,1,2,2,5,5,6,6,7,7,8,8,9,9,10,10],"right_children":[2,4,6,-1,-1,8,10,12,14,16,18,-1,-1,-1,-1,-1,-1,-1,-1],"split_conditions":[-1.2849786E0,6.018307E-1,-6.306297E-1,1.1001599E-1,-1.8890362E-2,-4.7520265E-1,1.1191883E0,-2.669483E-1,1.2153671E0,1.3383622E0,-5.2769256E-1,1.257419E-2,-1.4731684E-1,1.1532481E-1,-2.5968138E-2,-9.1163E-2,4.5942534E-2,-4.7969066E-2,1.0117181E-1],"split_indices":[40,12,23,0,0,30,22,32,41,30,10,0,0,0,0,0,0,0,0],"split_type":[0,0,0,0,0,0,0,0,0,0,0,0,0,0,0,0,0,0,0],"sum_hessian":[4.1086185E1,5.4168262E0,3.5669357E1,4.373751E0,1.0430748E0,1.0924243E1,2.4745113E1,2.9799175E0,7.944326E0,2.022257E1,4.5225444E0,1.5651537E0,1.4147639E0,6.9323497E0,1.0119762E0,1.6880224E1,3.342345E0,1.7537618E0,2.7687826E0],"tree_param":{"num_deleted":"0","num_feature":"42","num_nodes":"19","size_leaf_vector":"1"}},{"base_weights":[-1.6428249E-2,8.205423E-1,-1.5769045E-1,1.0618942E-1,-1.9382883E-2,4.1877013E-1,-4.0742743E-1,-7.604604E-1,9.2251104E-1,-8.22889E-1,3.489789E-3,1.1844228E-2,-1.3688056E-1,1.1139663E-1,-2.4532054E-2,5.1542457E-2,-1.3935977E-1,3.5438575E-2,-9.208635E-2],"categories":[],"categories_nodes":[],"categories_segments":[],"categories_sizes":[],"default_left":[0,0,0,0,0,0,0,0,0,0,0,0,0,0,0,0,0,0,0],"id":6,"left_children":[1,3,5,-1,-1,7,9,11,13,15,17,-1,-1,-1,-1,-1,-1,-1,-1],"loss_changes":[5.0638366E0,1.7207718E0,5.43208E0,0E0,0E0,7.5568094E0,4.4427648E0,2.3020918E0,2.1822662E0,1.0598746E1,4.890198E0,0E0,0E0,0E0,0E0,0E0,0E0,0E0,0E0],"parents":[2147483647,0,0,1,1,2,2,5,5,6,6,7,7,8,8,9,9,10,10],"right_children":[2,4,6,-1,-1,8,10,12,14,16,18,-1,-1,-1,-1,-1,-1,-1,-1],"split_conditions":[-1.2849786E0,1.4616748E0,-6.306297E-1,1.0618942E-1,-1.9382883E-2,-4.7520265E-1,-4.426717E-2,-2.669483E-1,1.2153671E0,-8.009424E-1,6.977858E-1,1.1844228E-2,-1.3688056E-1,1.1139663E-1,-2.4532054E-2,5.1542457E-2,-1.3935977E-1,3.5438575E-2,-9.208635E-2],"split_indices":[40,11,23,0,0,30,32,32,41,0,11,0,0,0,0,0,0,0,0],"split_type":[0,0,0,0,0,0,0,0,0,0,0,0,0,0,0,0,0,0,0],"sum_hessian":[4.073517E1,5.1879883E0,3.554718E1,4.1530037E0,1.0349844E0,1.0540351E1,2.5006828E1,3.0023603E0,7.5379906E0,1.19361315E1,1.3070698E1,1.5574907E0,1.4448698E0,6.515894E0,1.0220969E0,3.5973065E0,8.338824E0,9.921127E0,3.1495705E0],"tree_param":{"num_deleted":"0","num_feature":"42","num_nodes":"19","size_leaf_vector":"1"}},{"base_weights":[-1.587152E-2,1.6972958E-1,-6.1175245E-1,3.1990907E-1,-8.567479E-1,-8.8075083E-1,5.1026087E-2,6.9894403E-1,-8.6789325E-2,-1.3004912E-1,5.092417E-3,-1.2433008E0,9.391391E-2,8.3537154E-2,-4.1997604E-2,-9.2327565E-2,3.4953583E-2,-9.448249E-3,-1.6912839E-1,7.212641E-2,-5.87846E-2],"categories":[],"categories_nodes":[],"categories_segments":[],"categories_sizes":[],"default_left":[0,0,0,0,0,0,0,0,0,0,0,0,0,0,0,0,0,0,0,0,0],"id":7,"left_children":[1,3,5,7,9,11,-1,13,15,-1,-1,17,19,-1,-1,-1,-1,-1,-1,-1,-1],"loss_changes":[4.660941E0,5.238152E0,3.4686117E0,4.503314E0,1.8311191E0,3.0976315E0,0E0,2.6448326E0,5.7215405E0,0E0,0E0,3.0407124E0,1.7998567E0,0E0,0E0,0E0,0E0,0E0,0E0,0E0,0E0],"parents":[2147483647,0,0,1,1,2,2,3,3,4,4,5,5,7,7,8,8,11,11,12,12],"right_children":[2,4,6,8,10,12,-1,14,16,-1,-1,18,20,-1,-1,-1,-1,-1,-1,-1,-1],"split_conditions":[1.0629894E0,1.4470092E0,9.6231824E-1,-3.597616E-2,3.5605934E-1,2.798636E-1,5.1026087E-2,1.3464625E0,-7.264209E-1,-1.3004912E-1,5.092417E-3,-1.3179632E-1,-3.2045633E-1,8.3537154E-2,-4.1997604E-2,-9.2327565E-2,3.4953583E-2,-9.448249E-3,-1.6912839E-1,7.212641E-2,-5.87846E-2],"split_indices":[20,9,39,38,19,25,0,15,35,0,0,23,34,0,0,0,0,0,0,0,0],"split_type":[0,0,0,0,0,0,0,0,0,0,0,0,0,0,0,0,0,0,0,0,0],"sum_hessian":[4.020495E1,3.1201632E1,9.003318E0,2.7819782E1,3.3818495E0,7.435671E0,1.5676467E0,1.40276785E1,1.3792103E1,1.9807317E0,1.4011179E0,5.2187953E0,2.2168753E0,1.2729064E1,1.2986145E0,4.3454127E0,9.446691E0,1.8038546E0,3.4149408E0,1.1243305E0,1.0925448E0],"tree_param":{"num_deleted":"0","num_feature":"42","num_nodes":"21","size_leaf_vector":"1"}},{"base_weights":[-1.9972334E-2,-5.9268767E-1,1.674523E-1,4.287483E-1,-9.703591E-1,-2.0753728E-1,5.5643076E-1,7.867866E-2,-2.1823032E-2,-1.4688675E-1,7.2560655E-3,5.3445613E-1,-7.248771E-1,9.650742E-1,-2.55769E-1,-8.633034E-2,7.8105085E-2,9.14866E-2,-3.9727055E-2,-1.01394676E-1,7.430134E-2,1.1942595E-1,-1.7659519E-2,-8.602931E-2,5.8587145E-2],"categories":[],"categories_nodes":[],"categories_segments":[],"categories_sizes":[],"default_left":[0,0,0,0,0,0,0,0,0,0,0,0,0,0,0,0,0,0,0,0,0,0,0,0,0],"id":8,"left_children":[1,3,5,7,9,11,13,-1,-1,-1,15,17,19,21,23,-1,-1,-1,-1,-1,-1,-1,-1,-1,-1],"loss_changes":[4.459624E0,4.3648415E0,4.6934605E0,9.724205E-1,3.8020086E0,6.8011646E0,5.450056E0,0E0,0E0,0E0,3.114421E0,3.0002944E0,5.1107163E0,2.9946623E0,3.5760875E0,0E0,0E0,0E0,0E0,0E0,0E0,0E0,0E0,0E0,0E0],"parents":[2147483647,0,0,1,1,2,2,3,3,4,4,5,5,6,6,10,10,11,11,12,12,13,13,14,14],"right_children":[2,4,6,8,10,12,14,-1,-1,-1,16,18,20,22,24,-1,-1,-1,-1,-1,-1,-1,-1,-1,-1],"split_conditions":[-9.7081167E-1,-5.3387517E-1,9.900495E-1,-6.320605E-1,-1.4823152E-1,-1.3179632E-1,8.742527E-1,7.867866E-2,-2.1823032E-2,-1.4688675E-1,-6.7055386E-1,6.732205E-1,1.3216344E0,1.4626317E0,-1.07146546E-1,-8.633034E-2,7.8105085E-2,9.14866E-2,-3.9727055E-2,-1.01394676E-1,7.430134E-2,1.1942595E-1,-1.7659519E-2,-8.602931E-2,5.8587145E-2],"split_indices":[37,5,7,13,2,23,2,0,0,0,17,6,21,11,10,0,0,0,0,0,0,0,0,0,0],"split_type":[0,0,0,0,0,0,0,0,0,0,0,0,0,0,0,0,0,0,0,0,0,0,0,0,0],"sum_hessian":[3.962174E1,9.23623E0,3.038551E1,2.456697E0,6.779533E0,1.5708445E1,1.4677066E1,1.4423864E0,1.0143107E0,4.157187E0,2.622346E0,6.4395094E0,9.268935E0,9.639104E0,5.0379615E0,1.179581E0,1.4427649E0,4.5854397E0,1.8540696E0,8.002302E0,1.266633E0,7.989235E0,1.6498692E0,2.9191005E0,2.118861E0],"tree_param":{"num_deleted":"0","num_feature":"42","num_nodes":"25","size_leaf_vector":"1"}},{"base_weights":[-1.6798716E-2,7.5672436E-1,-1.421558E-1,-1.7797947E-2,9.961556E-2,1.5791664E-2,-9.0205777E-1,-1.0153972E-1,1.2842745E-1,3.1009844E-2,-1.5153182E-1,-9.5853604E-2,2.7500255E-2],"categories":[],"categories_nodes":[],"categories_segments":[],"categories_sizes":[],"default_left":[0,0,0,0,0,0,0,0,0,0,0,0,0],"id":9,"left_children":[1,3,5,-1,-1,7,9,-1,11,-1,-1,-1,-1],"loss_changes":[3.9813063E0,1.4595246E0,4.241479E0,0E0,0E0,3.6313336E0,4.98806E0,0E0,4.734382E0,0E0,0E0,0E0,0E0],"parents":[2147483647,0,0,1,1,2,2,5,5,6,6,8,8],"right_children":[2,4,6,-1,-1,8,10,-1,12,-1,-1,-1,-1],"split_conditions":[-1.2849786E0,-9.9769336E-1,1.2325304E0,-1.7797947E-2,9.961556E-2,-1.4394612E0,-9.2581296E-1,-1.0153972E-1,-1.1883888E0,3.1009844E-2,-1.5153182E-1,-9.5853604E-2,2.7500255E-2],"split_indices":[40,6,23,0,0,25,38,0,9,0,0,0,0],"split_type":[0,0,0,0,0,0,0,0,0,0,0,0,0],"sum_hessian":[3.8949158E1,4.729424E0,3.4219734E1,1.0167685E0,3.7126555E0,2.9141768E1,5.0779676E0,2.0804274E0,2.7061338E1,1.872054E0,3.2059138E0,2.557324E0,2.4504015E1],"tree_param":{"num_deleted":"0","num_feature":"42","num_nodes":"13","size_leaf_vector":"1"}},{"base_weights":[-2.0268397E-2,-5.587396E-1,1.5760937E-1,3.905437E-1,-9.043001E-1,4.4654706E-3,9.986912E-2,7.472136E-2,-2.2130024E-2,-1.3406554E-1,-1.6585011E-2,1.7750826E-1,-8.766307E-1,7.451663E-2,-8.38991E-2,-2.4627266E-3,1.0232234E-1,1.2694426E-2,-1.3349937E-1],"categories":[],"categories_nodes":[],"categories_segments":[],"categories_sizes":[],"default_left":[0,0,0,0,0,0,0,0,0,0,0,0,0,0,0,0,0,0,0],"id":10,"left_children":[1,3,5,7,9,11,-1,-1,-1,-1,13,15,17,-1,-1,-1,-1,-1,-1],"loss_changes":[3.8639119E0,3.6363955E0,3.9128675E0,9.006656E-1,2.9369192E0,4.231434E0,0E0,0E0,0E0,0E0,2.8366878E0,3.9870756E0,2.2655454E0,0E0,0E0,0E0,0E0,0E0,0E0],"parents":[2147483647,0,0,1,1,2,2,3,3,4,4,5,5,10,10,11,11,12,12],"right_children":[2,4,6,8,10,12,-1,-1,-1,-1,14,16,18,-1,-1,-1,-1,-1,-1],"split_conditions":[-9.7081167E-1,-5.3387517E-1,1.1746129E0,-6.320605E-1,-1.4823152E-1,1.3509394E0,9.986912E-2,7.472136E-2,-2.2130024E-2,-1.3406554E-1,3.451504E-1,9.969864E-1,-3.0458272E-1,7.451663E-2,-8.38991E-2,-2.4627266E-3,1.0232234E-1,1.2694426E-2,-1.3349937E-1],"split_indices":[37,5,30,13,2,23,0,0,0,0,27,33,33,0,0,0,0,0,0],"split_type":[0,0,0,0,0,0,0,0,0,0,0,0,0,0,0,0,0,0,0],"sum_hessian":[3.842126E1,9.008775E0,2.9412487E1,2.3694701E0,6.6393046E0,2.573244E1,3.6800454E0,1.3571062E0,1.0123638E0,4.1092005E0,2.530104E0,2.217577E1,3.556671E0,1.3622463E0,1.1678578E0,1.8681547E1,3.4942224E0,1.3418249E0,2.2148461E0],"tree_param":{"num_deleted":"0","num_feature":"42","num_nodes":"19","size_leaf_vector":"1"}},{"base_weights":[-1.8292319E-2,-3.1591412E-1,2.7648115E-1,-1.0559125E0,1.24579534E-1,5.6075627E-1,-3.8625735E-1,2.9749662E-2,-1.3772366E0,7.003287E-1,-3.288184E-1,-2.4699403E-1,8.7343144E-1,-1.12879254E-1,1.4715405E-1,-1.161076E-2,-1.6121025E-1,-8.7795587E-4,9.899521E-2,-7.8243114E-2,4.2682458E-2,-7.425746E-2,6.982399E-2,1.0035821E-1,-1.23692695E-2,8.5715294E-2,-6.299615E-2],"categories":[],"categories_nodes":[],"categories_segments":[],"categories_sizes":[],"default_left":[0,0,0,0,0,0,0,0,0,0,0,0,0,0,0,0,0,0,0,0,0,0,0,0,0,0,0],"id":11,"left_children":[1,3,5,7,9,11,13,-1,15,17,19,21,23,-1,25,-1,-1,-1,-1,-1,-1,-1,-1,-1,-1,-1,-1],"loss_changes":[3.496303E0,6.586222E0,3.9949913E0,3.668932E0,3.7040715E0,3.8634725E0,2.785086E0,0E0,1.6593552E0,1.2783444E0,3.1190248E0,2.7717357E0,1.5040188E0,0E0,3.1512408E0,0E0,0E0,0E0,0E0,0E0,0E0,0E0,0E0,0E0,0E0,0E0,0E0],"parents":[2147483647,0,0,1,1,2,2,3,3,4,4,5,5,6,6,8,8,9,9,10,10,11,11,12,12,14,14],"right_children":[2,4,6,8,10,12,14,-1,16,18,20,22,24,-1,26,-1,-1,-1,-1,-1,-1,-1,-1,-1,-1,-1,-1],"split_conditions":[1.0198237E-1,-3.0737686E-1,1.028041E0,-9.705418E-1,-9.458435E-2,-1.0210887E0,-8.0690634E-1,2.9749662E-2,-1.0892202E0,-6.579793E-1,4.236589E-1,3.660475E-1,1.3120669E0,-1.12879254E-1,6.499016E-1,-1.161076E-2,-1.6121025E-1,-8.7795587E-4,9.899521E-2,-7.8243114E-2,4.2682458E-2,-7.425746E-2,6.982399E-2,1.0035821E-1,-1.23692695E-2,8.5715294E-2,-6.299615E-2],"split_indices":[22,4,38,23,40,30,35,0,28,36,8,35,15,0,28,0,0,0,0,0,0,0,0,0,0,0,0],"split_type":[0,0,0,0,0,0,0,0,0,0,0,0,0,0,0,0,0,0,0,0,0,0,0,0,0,0,0],"sum_hessian":[3.785694E1,1.8801773E1,1.9055168E1,6.4944468E0,1.2307325E1,1.3442864E1,5.6123037E0,1.26029E0,5.2341566E0,5.182141E0,7.125185E0,3.810098E0,9.632767E0,1.879613E0,3.7326908E0,1.0563527E0,4.177804E0,1.7839758E0,3.398165E0,4.430252E0,2.6949327E0,2.6402378E0,1.16986E0,8.514876E0,1.11789E0,1.8967569E0,1.8359338E0],"tree_param":{"num_deleted":"0","num_feature":"42","num_nodes":"27","size_leaf_vector":"1"}},{"base_weights":[-1.7942416E-2,7.2762495E-1,-1.3540635E-1,9.4529375E-2,-1.0516585E-2,-1.4332526E-2,-9.359755E-1,5.8056563E-1,-2.1713457E-1,-2.672335E-3,-1.23035945E-1,8.73039E-2,-5.0971515E-2,-4.0643852E-2,5.983847E-2],"categories":[],"categories_nodes":[],"categories_segments":[],"categories_sizes":[],"default_left":[0,0,0,0,0,0,0,0,0,0,0,0,0,0,0],"id":12,"left_children":[1,3,5,-1,-1,7,9,11,13,-1,-1,-1,-1,-1,-1],"loss_changes":[3.439225E0,1.0689974E0,3.2624564E0,0E0,0E0,3.7904227E0,1.1513605E0,2.9940975E0,3.8524408E0,0E0,0E0,0E0,0E0,0E0,0E0],"parents":[2147483647,0,0,1,1,2,2,5,5,6,6,7,7,8,8],"right_children":[2,4,6,-1,-1,8,10,12,14,-1,-1,-1,-1,-1,-1],"split_conditions":[-1.2849786E0,1.4616748E0,1.4937084E0,9.4529375E-2,-1.0516585E-2,-9.292183E-1,-9.613837E-1,1.1861285E0,9.145093E-1,-2.672335E-3,-1.23035945E-1,8.73039E-2,-5.0971515E-2,-4.0643852E-2,5.983847E-2],"split_indices":[40,11,26,0,0,15,38,0,26,0,0,0,0,0,0],"split_type":[0,0,0,0,0,0,0,0,0,0,0,0,0,0,0],"sum_hessian":[3.7145737E1,4.348768E0,3.2796967E1,3.3405488E0,1.0082194E0,2.93727E1,3.424268E0,6.993955E0,2.2378744E1,1.1042844E0,2.3199835E0,5.6717367E0,1.3222188E0,1.856981E1,3.8089325E0],"tree_param":{"num_deleted":"0","num_feature":"42","num_nodes":"15","size_leaf_vector":"1"}},{"base_weights":[-1.5236745E-2,-5.051022E-1,1.4515987E-1,3.427913E-1,-8.0623907E-1,-1.8619223E-1,4.9676332E-1,6.790399E-2,-1.988515E-2,-1.1698782E-1,-3.1951007E-2,4.572114E-1,-6.035043E-1,8.8962764E-1,-2.2924832E-1,-7.552787E-2,6.839686E-2,8.301299E-2,-3.5252806E-2,-8.366852E-2,6.684512E-2,1.1143734E-1,-1.439854E-2,-7.273215E-2,5.196127E-2],"categories":[],"categories_nodes":[],"categories_segments":[],"categories_sizes":[],"default_left":[0,0,0,0,0,0,0,0,0,0,0,0,0,0,0,0,0,0,0,0,0,0,0,0,0],"id":13,"left_children":[1,3,5,7,9,11,13,-1,-1,-1,15,17,19,21,23,-1,-1,-1,-1,-1,-1,-1,-1,-1,-1],"loss_changes":[3.0425773E0,2.7134295E0,3.4996963E0,7.184026E-1,2.029714E0,4.5138245E0,4.328756E0,0E0,0E0,0E0,2.2638764E0,2.3395615E0,3.526714E0,2.3879132E0,2.5684597E0,0E0,0E0,0E0,0E0,0E0,0E0,0E0,0E0,0E0,0E0],"parents":[2147483647,0,0,1,1,2,2,3,3,4,4,5,5,6,6,10,10,11,11,12,12,13,13,14,14],"right_children":[2,4,6,8,10,12,14,-1,-1,-1,16,18,20,22,24,-1,-1,-1,-1,-1,-1,-1,-1,-1,-1],"split_conditions":[-9.7081167E-1,-5.3387517E-1,9.900495E-1,-6.320605E-1,-1.4823152E-1,-1.3179632E-1,8.742527E-1,6.790399E-2,-1.988515E-2,-1.1698782E-1,-6.7055386E-1,6.732205E-1,1.3216344E0,1.4626317E0,-1.07146546E-1,-7.552787E-2,6.839686E-2,8.301299E-2,-3.5252806E-2,-8.366852E-2,6.684512E-2,1.1143734E-1,-1.439854E-2,-7.273215E-2,5.196127E-2],"split_indices":[37,5,7,13,2,23,2,0,0,0,17,6,21,11,10,0,0,0,0,0,0,0,0,0,0],"split_type":[0,0,0,0,0,0,0,0,0,0,0,0,0,0,0,0,0,0,0,0,0,0,0,0,0],"sum_hessian":[3.6789898E1,8.544662E0,2.8245237E1,2.2031257E0,6.3415365E0,1.4783588E1,1.3461649E1,1.2027799E0,1.000346E0,3.9673772E0,2.3741593E0,5.778618E0,9.004971E0,8.588707E0,4.872942E0,1.1536225E0,1.220537E0,3.9392493E0,1.8393685E0,7.8990803E0,1.1058909E0,6.990565E0,1.5981418E0,2.9437766E0,1.9291654E0],"tree_param":{"num_deleted":"0","num_feature":"42","num_nodes":"25","size_leaf_vector":"1"}},{"base_weights":[-1.2136243E-2,6.967271E-1,-1.2041018E-1,-7.755813E-3,9.134475E-2,8.724341E-2,-2.0763065E-1,-7.543368E-1,-3.5524696E-2,-1.07815504E-1,4.8760856E-3,-1.8838285E-2,8.888722E-2],"categories":[],"categories_nodes":[],"categories_segments":[],"categories_sizes":[],"default_left":[0,0,0,0,0,0,0,0,0,0,0,0,0],"id":14,"left_children":[1,3,5,-1,-1,-1,7,9,11,-1,-1,-1,-1],"loss_changes":[2.9224682E0,9.178977E-1,3.033292E0,0E0,0E0,0E0,2.8979516E0,1.9752002E0,3.6563327E0,0E0,0E0,0E0,0E0],"parents":[2147483647,0,0,1,1,2,2,6,6,7,7,8,8],"right_children":[2,4,6,-1,-1,-1,8,10,12,-1,-1,-1,-1],"split_conditions":[-1.2849786E0,-9.797861E-1,-1.452413E0,-7.755813E-3,9.134475E-2,8.724341E-2,-9.7081167E-1,-1.5479158E-1,1.1746129E0,-1.07815504E-1,4.8760856E-3,-1.8838285E-2,8.888722E-2],"split_indices":[40,2,24,0,0,0,37,32,30,0,0,0,0],"split_type":[0,0,0,0,0,0,0,0,0,0,0,0,0],"sum_hessian":[3.598401E1,4.0478845E0,3.1936123E1,1.0256464E0,3.022238E0,1.8519908E0,3.0084133E1,6.393086E0,2.3691046E1,4.311959E0,2.081127E0,2.1012613E1,2.678433E0],"tree_param":{"num_deleted":"0","num_feature":"42","num_nodes":"13","size_leaf_vector":"1"}},{"base_weights":[-6.789087E-3,-2.732948E-1,2.634807E-1,-9.121661E-1,1.1549564E-1,5.386553E-1,-3.564052E-1,3.2469008E-2,-1.1851366E0,-1.8964793E-1,8.368573E-2,7.207102E-1,-5.6001704E-2,4.7877688E-2,-7.0893013E-1,-2.2795036E-2,-1.3909028E-1,4.1941095E-2,-5.351741E-2,9.231806E-2,-5.1575275E-3,2.8296238E-2,-1.0570001E-1],"categories":[],"categories_nodes":[],"categories_segments":[],"categories_sizes":[],"default_left":[0,0,0,0,0,0,0,0,0,0,0,0,0,0,0,0,0,0,0,0,0,0,0],"id":15,"left_children":[1,3,5,7,9,11,13,-1,15,17,-1,19,-1,-1,21,-1,-1,-1,-1,-1,-1,-1,-1],"loss_changes":[2.710865E0,4.8091736E0,3.3815703E0,2.841671E0,2.9455366E0,3.0735257E0,2.2091568E0,0E0,8.994112E-1,2.2683647E0,0E0,1.9064994E0,0E0,0E0,1.9800091E0,0E0,0E0,0E0,0E0,0E0,0E0,0E0,0E0],"parents":[2147483647,0,0,1,1,2,2,3,3,4,4,5,5,6,6,8,8,9,9,11,11,14,14],"right_children":[2,4,6,8,10,12,14,-1,16,18,-1,20,-1,-1,22,-1,-1,-1,-1,-1,-1,-1,-1],"split_conditions":[1.0198237E-1,-3.0737686E-1,1.028041E0,-1.1222041E0,7.081856E-1,1.3767319E0,-2.5067663E-1,3.2469008E-2,-1.3799781E0,-2.8290913E-1,8.368573E-2,1.0134122E0,-5.6001704E-2,4.7877688E-2,-7.203817E-1,-2.2795036E-2,-1.3909028E-1,4.1941095E-2,-5.351741E-2,9.231806E-2,-5.1575275E-3,2.8296238E-2,-1.0570001E-1],"split_indices":[22,4,38,16,8,9,0,0,4,18,0,15,0,0,33,0,0,0,0,0,0,0,0],"split_type":[0,0,0,0,0,0,0,0,0,0,0,0,0,0,0,0,0,0,0,0,0,0,0],"sum_hessian":[3.5636322E1,1.7937471E1,1.769885E1,6.276912E0,1.1660561E1,1.2348326E1,5.3505244E0,1.1005846E0,5.176327E0,8.712275E0,2.948286E0,1.088813E1,1.4601953E0,1.4817975E0,3.868727E0,1.2888147E0,3.8875127E0,3.0761364E0,5.636138E0,8.471711E0,2.416419E0,1.0535333E0,2.815194E0],"tree_param":{"num_deleted":"0","num_feature":"42","num_nodes":"23","size_leaf_vector":"1"}},{"base_weights":[-7.1053565E-3,1.4097512E-1,-4.6530414E-1,-1.565776E-1,5.044626E-1,-6.9464034E-1,5.039516E-2,6.667654E-2,-3.5791728E-1,-1.6129857E-1,7.2118104E-1,3.7451386E-2,-1.019402E0,-5.5616558E-2,6.251263E-2,7.330699E-2,-8.983632E-2,-2.2492638E-2,9.344458E-2,6.916448E-2,-6.75598E-2,-1.3007595E-1,-1.4187047E-3],"categories":[],"categories_nodes":[],"categories_segments":[],"categories_sizes":[],"default_left":[0,0,0,0,0,0,0,0,0,0,0,0,0,0,0,0,0,0,0,0,0,0,0],"id":16,"left_children":[1,3,5,7,9,11,-1,-1,13,15,17,19,21,-1,-1,-1,-1,-1,-1,-1,-1,-1,-1],"loss_changes":[2.5080225E0,3.104413E0,2.3561182E0,2.9149451E0,1.9672024E0,1.8732598E0,0E0,0E0,3.0026093E0,3.2739935E0,2.1997643E0,2.0235868E0,1.5037127E0,0E0,0E0,0E0,0E0,0E0,0E0,0E0,0E0,0E0,0E0],"parents":[2147483647,0,0,1,1,2,2,3,3,4,4,5,5,8,8,9,9,10,10,11,11,12,12],"right_children":[2,4,6,8,10,12,-1,-1,14,16,18,20,22,-1,-1,-1,-1,-1,-1,-1,-1,-1,-1],"split_conditions":[1.0629894E0,1.2238581E-1,9.6231824E-1,-9.354219E-1,-9.0835696E-1,-5.8446754E-2,5.039516E-2,6.667654E-2,1.2183542E0,2.6877022E-1,-1.0479788E0,6.4675367E-1,2.798636E-1,-5.5616558E-2,6.251263E-2,7.330699E-2,-8.983632E-2,-2.2492638E-2,9.344458E-2,6.916448E-2,-6.75598E-2,-1.3007595E-1,-1.4187047E-3],"split_indices":[20,17,39,40,29,23,0,0,34,16,35,28,25,0,0,0,0,0,0,0,0,0,0],"split_type":[0,0,0,0,0,0,0,0,0,0,0,0,0,0,0,0,0,0,0,0,0,0,0],"sum_hessian":[3.4997288E1,2.6972616E1,8.024672E0,1.5144493E1,1.1828124E1,6.7183614E0,1.3063098E0,2.5215235E0,1.262297E1,2.9675386E0,8.860585E0,2.336347E0,4.3820143E0,1.0865907E1,1.7570629E0,1.3431518E0,1.6243867E0,1.6198323E0,7.240753E0,1.2341156E0,1.1022316E0,3.1940074E0,1.1880068E0],"tree_param":{"num_deleted":"0","num_feature":"42","num_nodes":"23","size_leaf_vector":"1"}},{"base_weights":[-4.4818018E-3,9.2123285E-2,-6.8659836E-1,5.8174556E-1,-6.4619176E-2,-1.0691758E-1,9.812062E-3,8.396448E-1,-4.2212278E-2,-2.630883E-1,6.111034E-1,1.014807E-1,-5.9964336E-3,-5.888725E-2,2.519334E-2,9.508176E-2,-1.4642688E-2],"categories":[],"categories_nodes":[],"categories_segments":[],"categories_sizes":[],"default_left":[0,0,0,0,0,0,0,0,0,0,0,0,0,0,0,0,0],"id":17,"left_children":[1,3,5,7,9,-1,-1,11,-1,13,15,-1,-1,-1,-1,-1,-1],"loss_changes":[2.3921914E0,2.481134E0,1.456712E0,2.3792932E0,3.5160494E0,0E0,0E0,1.0940971E0,0E0,3.510418E0,1.6784015E0,0E0,0E0,0E0,0E0,0E0,0E0],"parents":[2147483647,0,0,1,1,2,2,3,3,4,4,7,7,9,9,10,10],"right_children":[2,4,6,8,10,-1,-1,12,-1,14,16,-1,-1,-1,-1,-1,-1],"split_conditions":[1.5213399E0,-9.292183E-1,1.4660564E-1,1.1861285E0,5.7433313E-1,-1.0691758E-1,9.812062E-3,1.1492671E0,-4.2212278E-2,1.1255988E-1,7.792524E-1,1.014807E-1,-5.9964336E-3,-5.888725E-2,2.519334E-2,9.508176E-2,-1.4642688E-2],"split_indices":[26,15,22,0,26,0,0,20,0,29,38,0,0,0,0,0,0],"split_type":[0,0,0,0,0,0,0,0,0,0,0,0,0,0,0,0,0],"sum_hessian":[3.4342697E1,3.0839924E1,3.5027742E0,6.821106E0,2.4018818E1,2.1110632E0,1.391711E0,5.5570583E0,1.264048E0,1.9037806E1,4.981012E0,4.544206E0,1.0128522E0,1.1573459E1,7.464347E0,3.2627006E0,1.7183113E0],"tree_param":{"num_deleted":"0","num_feature":"42","num_nodes":"17","size_leaf_vector":"1"}},{"base_weights":[-3.2975394E-3,-2.4926594E-1,2.4855517E-1,-8.1251544E-1,9.877706E-2,5.259024E-1,-2.732958E-1,2.7690476E-2,-1.065067E0,6.0928684E-1,-2.731426E-1,9.7302526E-1,-8.206924E-2,-1.0403138E-1,1.108962E-1,-6.3301823E-3,-1.2585391E-1,-2.981562E-3,8.9116745E-2,-6.815553E-2,4.2741526E-2,1.0453776E-1,2.7192343E-2,-6.310903E-2,4.6509862E-2,-6.314535E-2,6.881282E-2],"categories":[],"categories_nodes":[],"categories_segments":[],"categories_sizes":[],"default_left":[0,0,0,0,0,0,0,0,0,0,0,0,0,0,0,0,0,0,0,0,0,0,0,0,0,0,0],"id":18,"left_children":[1,3,5,7,9,11,13,-1,15,17,19,21,23,-1,25,-1,-1,-1,-1,-1,-1,-1,-1,-1,-1,-1,-1],"loss_changes":[2.2202847E0,3.633538E0,2.7077374E0,2.2293997E0,2.46283E0,3.3173146E0,2.1209219E0,0E0,1.066577E0,1.0006678E0,2.4908562E0,6.779575E-2,2.086699E0,0E0,2.7648306E0,0E0,0E0,0E0,0E0,0E0,0E0,0E0,0E0,0E0,0E0,0E0,0E0],"parents":[2147483647,0,0,1,1,2,2,3,3,4,4,5,5,6,6,8,8,9,9,10,10,11,11,12,12,14,14],"right_children":[2,4,6,8,10,12,14,-1,16,18,20,22,24,-1,26,-1,-1,-1,-1,-1,-1,-1,-1,-1,-1,-1,-1],"split_conditions":[1.0198237E-1,-3.0737686E-1,9.037188E-1,-9.705418E-1,-9.458435E-2,4.9462798E-1,-1.0552418E0,2.7690476E-2,-1.0892202E0,-6.579793E-1,4.236589E-1,1.1883434E0,-3.8689107E-1,-1.0403138E-1,-3.9443934E-1,-6.3301823E-3,-1.2585391E-1,-2.981562E-3,8.9116745E-2,-6.815553E-2,4.2741526E-2,1.0453776E-1,2.7192343E-2,-6.310903E-2,4.6509862E-2,-6.314535E-2,6.881282E-2],"split_indices":[22,4,38,23,40,27,27,0,28,36,8,24,29,0,35,0,0,0,0,0,0,0,0,0,0,0,0],"split_type":[0,0,0,0,0,0,0,0,0,0,0,0,0,0,0,0,0,0,0,0,0,0,0,0,0,0,0],"sum_hessian":[3.384108E1,1.7125738E1,1.671534E1,6.0310173E0,1.1094721E1,1.0909515E1,5.8058248E0,1.1168563E0,4.9141607E0,4.407126E0,6.687595E0,5.940342E0,4.9691734E0,1.3676304E0,4.4381943E0,1.010282E0,3.903879E0,1.622558E0,2.784568E0,4.2418165E0,2.4457781E0,4.9395413E0,1.0008007E0,2.403828E0,2.5653455E0,1.9003342E0,2.53786E0],"tree_param":{"num_deleted":"0","num_feature":"42","num_nodes":"27","size_leaf_vector":"1"}},{"base_weights":[-3.173421E-3,-9.213414E-2,6.886431E-1,4.3319532E-1,-2.5010237E-1,1.5243496E-2,8.21164E-2,-2.8646454E-1,8.072203E-1,6.591075E-2,-3.712348E-1,-7.0520155E-2,3.1472664E-2,7.5553283E-3,9.6811205E-2,4.7154002E-2,-5.1696625E-2],"categories":[],"categories_nodes":[],"categories_segments":[],"categories_sizes":[],"default_left":[0,0,0,0,0,0,0,0,0,0,0,0,0,0,0,0,0],"id":19,"left_children":[1,3,5,7,9,-1,-1,11,13,-1,15,-1,-1,-1,-1,-1,-1],"loss_changes":[2.1588364E0,2.6849964E0,1.588651E-1,2.2619185E0,2.9435687E0,0E0,0E0,1.0572438E0,5.420697E-1,0E0,2.9782093E0,0E0,0E0,0E0,0E0,0E0,0E0],"parents":[2147483647,0,0,1,1,2,2,3,3,4,4,7,7,8,8,10,10],"right_children":[2,4,6,8,10,-1,-1,12,14,-1,16,-1,-1,-1,-1,-1,-1],"split_conditions":[1.3577601E0,-9.294975E-1,-1.3701424E-1,-7.032811E-1,-1.2442244E0,1.5243496E-2,8.21164E-2,-3.6529437E-1,-6.0690916E-1,6.591075E-2,-1.1390877E0,-7.0520155E-2,3.1472664E-2,7.5553283E-3,9.6811205E-2,4.7154002E-2,-5.1696625E-2],"split_indices":[21,24,37,13,40,0,0,26,41,0,16,0,0,0,0,0,0],"split_type":[0,0,0,0,0,0,0,0,0,0,0,0,0,0,0,0,0],"sum_hessian":[3.304673E1,3.004949E1,2.9972422E0,6.544201E0,2.350529E1,1.020074E0,1.9771682E0,2.3180857E0,4.226115E0,2.2412724E0,2.1264015E1,1.264405E0,1.0536808E0,1.0267022E0,3.1994133E0,2.8052697E0,1.8458746E1],"tree_param":{"num_deleted":"0","num_feature":"42","num_nodes":"17","size_leaf_vector":"1"}},{"base_weights":[4.3753805E-3,-9.976902E-2,5.529877E-1,5.885448E-1,-2.1414351E-1,-2.4525505E-2,8.574187E-2,-1.7073072E-2,8.633965E-2,-3.6102548E-1,2.6664817E-1,-5.8126252E-2,1.0908703E-2,6.450294E-2,-7.108524E-2],"categories":[],"categories_nodes":[],"categories_segments":[],"categories_sizes":[],"default_left":[0,0,0,0,0,0,0,0,0,0,0,0,0,0,0],"id":20,"left_children":[1,3,5,7,9,-1,-1,-1,-1,11,13,-1,-1,-1,-1],"loss_changes":[1.9825524E0,2.4247353E0,1.5553288E0,1.0713376E0,1.9162495E0,0E0,0E0,0E0,0E0,2.1512797E0,2.9018679E0,0E0,0E0,0E0,0E0],"parents":[2147483647,0,0,1,1,2,2,3,3,4,4,9,9,10,10],"right_children":[2,4,6,8,10,-1,-1,-1,-1,12,14,-1,-1,-1,-1],"split_conditions":[1.1118246E0,-1.1630679E0,-6.1778444E-1,-1.0842164E0,1.0317895E0,-2.4525505E-2,8.574187E-2,-1.7073072E-2,8.633965E-2,2.8174615E-1,1.326123E0,-5.8126252E-2,1.0908703E-2,6.450294E-2,-7.108524E-2],"split_indices":[39,38,17,26,25,0,0,0,0,19,23,0,0,0,0],"split_type":[0,0,0,0,0,0,0,0,0,0,0,0,0,0,0],"sum_hessian":[3.273387E1,2.8198942E1,4.53493E0,3.4273193E0,2.4771622E1,1.305689E0,3.2292411E0,1.0116024E0,2.415717E0,1.916562E1,5.6060004E0,1.2890351E1,6.27527E0,4.28676E0,1.3192406E0],"tree_param":{"num_deleted":"0","num_feature":"42","num_nodes":"15","size_leaf_vector":"1"}},{"base_weights":[6.8193143E-3,9.604865E-2,-6.188216E-1,-3.249589E-1,2.4923676E-1,-9.567019E-2,9.084012E-3,4.8424434E-2,-5.5540466E-1,3.7831855E-1,-6.539487E-1,-4.4625252E-3,-9.632277E-2,6.337606E-2,-1.8882414E-2,-9.634071E-2,-4.7869775E-3],"categories":[],"categories_nodes":[],"categories_segments":[],"categories_sizes":[],"default_left":[0,0,0,0,0,0,0,0,0,0,0,0,0,0,0,0,0],"id":21,"left_children":[1,3,5,7,9,-1,-1,-1,11,13,15,-1,-1,-1,-1,-1,-1],"loss_changes":[1.9212613E0,2.0192492E0,1.1172843E0,1.845056E0,2.8824067E0,0E0,0E0,0E0,1.4243996E0,3.0763435E0,5.527029E-1,0E0,0E0,0E0,0E0,0E0,0E0],"parents":[2147483647,0,0,1,1,2,2,3,3,4,4,8,8,9,9,10,10],"right_children":[2,4,6,8,10,-1,-1,-1,12,14,16,-1,-1,-1,-1,-1,-1],"split_conditions":[1.5213399E0,-8.3336025E-1,1.4660564E-1,-9.306937E-1,1.3185278E0,-9.567019E-2,9.084012E-3,4.8424434E-2,-8.334362E-2,9.959637E-1,-1.1410781E0,-4.4625252E-3,-9.632277E-2,6.337606E-2,-1.8882414E-2,-9.634071E-2,-4.7869775E-3],"split_indices":[26,37,22,15,16,0,0,0,36,23,13,0,0,0,0,0,0],"split_type":[0,0,0,0,0,0,0,0,0,0,0,0,0,0,0,0,0],"sum_hessian":[3.235077E1,2.9053604E1,3.2971652E0,7.451982E0,2.1601622E1,1.9978498E0,1.2993152E0,1.4076667E0,6.0443153E0,1.9408867E1,2.192755E0,3.1759758E0,2.8683398E0,1.3300733E1,6.108134E0,1.0612943E0,1.1314607E0],"tree_param":{"num_deleted":"0","num_feature":"42","num_nodes":"17","size_leaf_vector":"1"}},{"base_weights":[5.521702E-4,6.14774E-1,-8.7177694E-2,7.993429E-2,1.9331727E-3,3.2312017E-2,-6.463945E-1,5.6815106E-1,-1.0737322E-1,2.4513533E-2,-1.0809278E-1,-2.5626699E-2,8.3464146E-2,-3.6969602E-2,4.821805E-2],"categories":[],"categories_nodes":[],"categories_segments":[],"categories_sizes":[],"default_left":[0,0,0,0,0,0,0,0,0,0,0,0,0,0,0],"id":22,"left_children":[1,3,5,-1,-1,7,9,11,13,-1,-1,-1,-1,-1,-1],"loss_changes":[1.821115E0,4.4873285E-1,1.9972842E0,0E0,0E0,1.9563816E0,2.3007195E0,1.3992132E0,3.414776E0,0E0,0E0,0E0,0E0,0E0,0E0],"parents":[2147483647,0,0,1,1,2,2,5,5,6,6,7,7,8,8],"right_children":[2,4,6,-1,-1,8,10,12,14,-1,-1,-1,-1,-1,-1],"split_conditions":[-1.2849786E0,5.855207E-1,1.2325304E0,7.993429E-2,1.9331727E-3,-1.1178298E0,-9.2581296E-1,-1.1052288E0,6.1413187E-1,2.4513533E-2,-1.0809278E-1,-2.5626699E-2,8.3464146E-2,-3.6969602E-2,4.821805E-2],"split_indices":[40,28,23,0,0,16,38,36,33,0,0,0,0,0,0],"split_type":[0,0,0,0,0,0,0,0,0,0,0,0,0,0,0],"sum_hessian":[3.1801352E1,3.2237034E0,2.8577648E1,2.1994925E0,1.0242108E0,2.4322746E1,4.2549024E0,4.395198E0,1.9927547E1,1.5371022E0,2.7178001E0,1.0830437E0,3.312154E0,1.404924E1,5.8783083E0],"tree_param":{"num_deleted":"0","num_feature":"42","num_nodes":"15","size_leaf_vector":"1"}},{"base_weights":[2.8969515E-3,-7.830293E-2,6.5620685E-1,3.9706683E-1,-2.178801E-1,7.56609E-2,1.958455E-2,-2.8335917E-1,7.6995015E-1,6.211669E-2,-3.2649946E-1,2.3368351E-2,-6.4433455E-2,9.1771215E-2,1.0249739E-2,-1.7036196E-2,-9.978749E-2],"categories":[],"categories_nodes":[],"categories_segments":[],"categories_sizes":[],"default_left":[0,0,0,0,0,0,0,0,0,0,0,0,0,0,0,0,0],"id":23,"left_children":[1,3,5,7,9,-1,-1,11,13,-1,15,-1,-1,-1,-1,-1,-1],"loss_changes":[1.7681248E0,2.0556347E0,2.2108555E-2,2.0171266E0,2.3524642E0,0E0,0E0,7.5547653E-1,3.8419414E-1,0E0,2.0878756E0,0E0,0E0,0E0,0E0,0E0,0E0],"parents":[2147483647,0,0,1,1,2,2,3,3,4,4,7,7,8,8,10,10],"right_children":[2,4,6,8,10,-1,-1,12,14,-1,16,-1,-1,-1,-1,-1,-1],"split_conditions":[1.3577601E0,-9.294975E-1,1.5719706E0,-7.032811E-1,-1.2442244E0,7.56609E-2,1.958455E-2,1.3793796E-1,2.257574E-2,6.211669E-2,1.2325304E0,2.3368351E-2,-6.4433455E-2,9.1771215E-2,1.0249739E-2,-1.7036196E-2,-9.978749E-2],"split_indices":[21,24,21,13,40,0,0,15,26,0,23,0,0,0,0,0,0],"split_type":[0,0,0,0,0,0,0,0,0,0,0,0,0,0,0,0,0],"sum_hessian":[3.1361626E1,2.867745E1,2.6841755E0,6.090327E0,2.2587124E1,1.6752931E0,1.0088825E0,2.2410371E0,3.8492897E0,2.0480325E0,2.0539091E1,1.0663233E0,1.174714E0,2.8445995E0,1.0046902E0,1.7680906E1,2.8581853E0],"tree_param":{"num_deleted":"0","num_feature":"42","num_nodes":"17","size_leaf_vector":"1"}},{"base_weights":[6.0978713E-3,-2.1574298E-1,2.349647E-1,-7.3409307E-1,1.0504718E-1,4.8071164E-1,-2.860197E-1,1.5050175E-2,-9.4151336E-1,-1.5072753E-1,7.406131E-2,-2.0180944E-1,7.65347E-1,4.51509E-2,-5.968709E-1,-2.1717774E-2,-1.0568714E-1,3.907448E-2,-4.570595E-2,3.4252197E-2,-7.214186E-2,8.94984E-2,-8.0182385E-3,-1.01098E-1,-3.6444475E-3],"categories":[],"categories_nodes":[],"categories_segments":[],"categories_sizes":[],"default_left":[0,0,0,0,0,0,0,0,0,0,0,0,0,0,0,0,0,0,0,0,0,0,0,0,0],"id":24,"left_children":[1,3,5,7,9,11,13,-1,15,17,-1,19,21,-1,23,-1,-1,-1,-1,-1,-1,-1,-1,-1,-1],"loss_changes":[1.6748455E0,2.8648646E0,2.2146463E0,1.3406267E0,1.9373552E0,2.368542E0,1.605384E0,0E0,2.2427034E-1,1.6447345E0,0E0,1.419609E0,9.762249E-1,0E0,1.0144397E0,0E0,0E0,0E0,0E0,0E0,0E0,0E0,0E0,0E0,0E0],"parents":[2147483647,0,0,1,1,2,2,3,3,4,4,5,5,6,6,8,8,9,9,11,11,12,12,14,14],"right_children":[2,4,6,8,10,12,14,-1,16,18,-1,20,22,-1,24,-1,-1,-1,-1,-1,-1,-1,-1,-1,-1],"split_conditions":[1.0198237E-1,-3.0737686E-1,1.028041E0,-1.5025611E0,7.081856E-1,-1.0210887E0,-2.5067663E-1,1.5050175E-2,-1.273392E0,-2.8290913E-1,7.406131E-2,3.348394E-1,1.2751923E0,4.51509E-2,-6.286239E-1,-2.1717774E-2,-1.0568714E-1,3.907448E-2,-4.570595E-2,3.4252197E-2,-7.214186E-2,8.94984E-2,-8.0182385E-3,-1.01098E-1,-3.6444475E-3],"split_indices":[22,4,38,4,8,30,0,0,33,18,0,27,15,0,27,0,0,0,0,0,0,0,0,0,0],"split_type":[0,0,0,0,0,0,0,0,0,0,0,0,0,0,0,0,0,0,0,0,0,0,0,0,0],"sum_hessian":[3.0989151E1,1.5765235E1,1.5223915E1,5.534271E0,1.0230965E1,1.0396986E1,4.826929E0,1.1033167E0,4.430954E0,7.8390803E0,2.3918843E0,3.1454847E0,7.2515016E0,1.2970477E0,3.5298812E0,1.0047499E0,3.426204E0,2.7328808E0,5.1061997E0,1.702642E0,1.4428427E0,6.236785E0,1.014717E0,1.5676032E0,1.962278E0],"tree_param":{"num_deleted":"0","num_feature":"42","num_nodes":"25","size_leaf_vector":"1"}},{"base_weights":[4.0914724E-3,8.950245E-2,-5.8426476E-1,-3.4716034E-1,2.2335885E-1,-8.8298224E-2,7.582338E-3,3.4008857E-2,-6.345573E-1,3.3408365E-1,-5.090645E-1,-9.459271E-2,8.362242E-3,7.872047E-2,1.0186998E-2,-8.666441E-2,4.109931E-3],"categories":[],"categories_nodes":[],"categories_segments":[],"categories_sizes":[],"default_left":[0,0,0,0,0,0,0,0,0,0,0,0,0,0,0,0,0],"id":25,"left_children":[1,3,5,7,9,-1,-1,-1,11,13,15,-1,-1,-1,-1,-1,-1],"loss_changes":[1.6267378E0,1.7273772E0,8.762846E-1,1.601171E0,1.9714353E0,0E0,0E0,0E0,1.2631032E0,2.013612E0,6.874211E-1,0E0,0E0,0E0,0E0,0E0,0E0],"parents":[2147483647,0,0,1,1,2,2,3,3,4,4,8,8,9,9,10,10],"right_children":[2,4,6,8,10,-1,-1,-1,12,14,16,-1,-1,-1,-1,-1,-1],"split_conditions":[1.5213399E0,-9.7081167E-1,1.4660564E-1,-8.797256E-1,1.3185278E0,-8.8298224E-2,7.582338E-3,3.4008857E-2,3.04686E-4,-5.891285E-1,-1.1410781E0,-9.459271E-2,8.362242E-3,7.872047E-2,1.0186998E-2,-8.666441E-2,4.109931E-3],"split_indices":[26,37,22,24,16,0,0,0,14,32,13,0,0,0,0,0,0],"split_type":[0,0,0,0,0,0,0,0,0,0,0,0,0,0,0,0,0],"sum_hessian":[3.0330938E1,2.7226393E1,3.104546E0,6.014036E0,2.1212357E1,1.904849E0,1.1996969E0,1.7193161E0,4.29472E0,1.8899128E1,2.3132284E0,2.7746444E0,1.5200759E0,5.593828E0,1.33053E1,1.053353E0,1.2598755E0],"tree_param":{"num_deleted":"0","num_feature":"42","num_nodes":"17","size_leaf_vector":"1"}},{"base_weights":[-2.5699564E-4,-9.565812E-2,5.1268524E-1,5.4032356E-1,-1.9960733E-1,-2.1747211E-2,8.0170564E-2,7.960098E-2,-1.1894296E-2,-3.359668E-1,2.5952035E-1,-5.7335597E-2,5.101417E-3,5.9444096E-2,-5.8988966E-2],"categories":[],"categories_nodes":[],"categories_segments":[],"categories_sizes":[],"default_left":[0,0,0,0,0,0,0,0,0,0,0,0,0,0,0],"id":26,"left_children":[1,3,5,7,9,-1,-1,-1,-1,11,13,-1,-1,-1,-1],"loss_changes":[1.5600199E0,1.8847277E0,1.2293785E0,7.766397E-1,1.5792243E0,0E0,0E0,0E0,0E0,1.7572818E0,2.0636594E0,0E0,0E0,0E0,0E0],"parents":[2147483647,0,0,1,1,2,2,3,3,4,4,9,9,10,10],"right_children":[2,4,6,8,10,-1,-1,-1,-1,12,14,-1,-1,-1,-1],"split_conditions":[1.1118246E0,-1.1630679E0,-6.1778444E-1,-1.2134321E-2,1.0317895E0,-2.1747211E-2,8.0170564E-2,7.960098E-2,-1.1894296E-2,3.1552044E-1,1.326123E0,-5.7335597E-2,5.101417E-3,5.9444096E-2,-5.8988966E-2],"split_indices":[39,38,17,39,25,0,0,0,0,17,23,0,0,0,0],"split_type":[0,0,0,0,0,0,0,0,0,0,0,0,0,0,0],"sum_hessian":[2.9877064E1,2.5877642E1,3.9994214E0,3.0456707E0,2.2831972E1,1.2043656E0,2.7950559E0,2.0450952E0,1.0005755E0,1.7810545E1,5.0214257E0,1.0740371E1,7.070174E0,3.8166864E0,1.2047396E0],"tree_param":{"num_deleted":"0","num_feature":"42","num_nodes":"15","size_leaf_vector":"1"}},{"base_weights":[2.6352291E-3,1.2668072E-1,-3.764439E-1,-1.1776177E-1,4.4399884E-1,2.0905355E-1,-6.679905E-1,5.8548767E-2,-2.8371644E-1,-1.4493705E-1,6.45786E-1,-4.1447416E-2,6.740337E-2,-8.6751807E-1,-1.3319819E-3,-4.485178E-2,5.428284E-2,6.1332185E-2,-7.104043E-2,-1.6779935E-2,8.377466E-2,-2.9822288E-2,-1.0137804E-1],"categories":[],"categories_nodes":[],"categories_segments":[],"categories_sizes":[],"default_left":[0,0,0,0,0,0,0,0,0,0,0,0,0,0,0,0,0,0,0,0,0,0,0],"id":27,"left_children":[1,3,5,7,9,11,13,-1,15,17,19,-1,-1,21,-1,-1,-1,-1,-1,-1,-1,-1,-1],"loss_changes":[1.4827869E0,1.8939192E0,1.4670526E0,1.8235698E0,1.3462851E0,1.2496489E0,6.976917E-1,0E0,1.9003804E0,1.9392715E0,1.3953393E0,0E0,0E0,4.287076E-2,0E0,0E0,0E0,0E0,0E0,0E0,0E0,0E0,0E0],"parents":[2147483647,0,0,1,1,2,2,3,3,4,4,5,5,6,6,8,8,9,9,10,10,13,13],"right_children":[2,4,6,8,10,12,14,-1,16,18,20,-1,-1,22,-1,-1,-1,-1,-1,-1,-1,-1,-1],"split_conditions":[1.0629894E0,1.2238581E-1,-5.8446754E-2,-9.354219E-1,-9.0835696E-1,-6.17193E-1,2.798636E-1,5.8548767E-2,1.2183542E0,2.6877022E-1,-1.0479788E0,-4.1447416E-2,6.740337E-2,2.246093E-1,-1.3319819E-3,-4.485178E-2,5.428284E-2,6.1332185E-2,-7.104043E-2,-1.6779935E-2,8.377466E-2,-2.9822288E-2,-1.0137804E-1],"split_indices":[20,17,23,40,29,37,25,0,34,16,35,0,0,11,0,0,0,0,0,0,0,0,0],"split_type":[0,0,0,0,0,0,0,0,0,0,0,0,0,0,0,0,0,0,0,0,0,0,0],"sum_hessian":[2.9519045E1,2.2742779E1,6.776266E0,1.3201802E1,9.5409775E0,2.3466215E0,4.4296446E0,2.0379193E0,1.1163883E1,2.506689E0,7.0342884E0,1.0488104E0,1.297811E0,3.1457698E0,1.2838746E0,9.689326E0,1.4745566E0,1.034652E0,1.4720371E0,1.3668867E0,5.667402E0,1.2641789E0,1.881591E0],"tree_param":{"num_deleted":"0","num_feature":"42","num_nodes":"23","size_leaf_vector":"1"}},{"base_weights":[3.5548438E-3,-5.90509E-1,8.149913E-2,-2.5181582E-3,-8.547023E-2,-3.5553917E-1,2.1493381E-1,-6.4950454E-1,2.8927127E-2,-7.1814485E-2,5.192263E-1,-4.2355587E-3,-8.766477E-2,2.701974E-2,-6.8209186E-2,8.970861E-2,-1.0933223E-2],"categories":[],"categories_nodes":[],"categories_segments":[],"categories_sizes":[],"default_left":[0,0,0,0,0,0,0,0,0,0,0,0,0,0,0,0,0],"id":28,"left_children":[1,3,5,-1,-1,7,9,11,-1,13,15,-1,-1,-1,-1,-1,-1],"loss_changes":[1.4350027E0,5.1545286E-1,1.671732E0,0E0,0E0,1.4721853E0,1.9203355E0,6.4717054E-1,0E0,2.6867177E0,2.6136713E0,0E0,0E0,0E0,0E0,0E0,0E0],"parents":[2147483647,0,0,1,1,2,2,5,5,6,6,7,7,9,9,10,10],"right_children":[2,4,6,-1,-1,8,10,12,-1,14,16,-1,-1,-1,-1,-1,-1],"split_conditions":[-1.4000242E0,5.1827665E-2,-9.7081167E-1,-2.5181582E-3,-8.547023E-2,3.2013515E-1,9.900495E-1,9.900495E-1,2.8927127E-2,9.820285E-1,8.742527E-1,-4.2355587E-3,-8.766477E-2,2.701974E-2,-6.8209186E-2,8.970861E-2,-1.0933223E-2],"split_indices":[36,33,37,0,0,34,7,7,0,23,2,0,0,0,0,0,0],"split_type":[0,0,0,0,0,0,0,0,0,0,0,0,0,0,0,0,0],"sum_hessian":[2.8951628E1,2.59528E0,2.6356348E1,1.1754141E0,1.4198658E0,5.775464E0,2.0580883E1,3.9619527E0,1.8135113E0,1.0989236E1,9.591648E0,1.4017019E0,2.5602508E0,7.3996024E0,3.5896335E0,5.723648E0,3.8679996E0],"tree_param":{"num_deleted":"0","num_feature":"42","num_nodes":"17","size_leaf_vector":"1"}},{"base_weights":[-2.5734561E-4,-7.531345E-2,6.0543697E-2,3.599844E-1,-2.0018636E-1,-2.5877848E-1,7.2411096E-1,4.4192937E-1,-3.199674E-1,9.103828E-3,-4.864713E-2,1.9705601E-2,8.3000496E-2,-2.0125689E-2,7.481735E-2,4.1715346E-2,-4.510277E-2],"categories":[],"categories_nodes":[],"categories_segments":[],"categories_sizes":[],"default_left":[0,0,0,0,0,0,0,0,0,0,0,0,0,0,0,0,0],"id":29,"left_children":[1,3,-1,5,7,9,11,13,15,-1,-1,-1,-1,-1,-1,-1,-1],"loss_changes":[1.3810338E0,1.5411124E0,0E0,1.6252955E0,1.8061137E0,2.9128608E-1,7.537103E-2,9.0354097E-1,2.006421E0,0E0,0E0,0E0,0E0,0E0,0E0,0E0,0E0],"parents":[2147483647,0,0,1,1,3,3,4,4,5,5,6,6,7,7,8,8],"right_children":[2,4,-1,6,8,10,12,14,16,-1,-1,-1,-1,-1,-1,-1,-1],"split_conditions":[1.3577601E0,-9.294975E-1,6.0543697E-2,-7.032811E-1,-1.0304493E0,5.147299E-2,-6.129051E-1,-3.2177028E-1,-1.1390877E0,9.103828E-3,-4.864713E-2,1.9705601E-2,8.3000496E-2,-2.0125689E-2,7.481735E-2,4.1715346E-2,-4.510277E-2],"split_indices":[21,24,0,13,40,29,34,23,16,0,0,0,0,0,0,0,0],"split_type":[0,0,0,0,0,0,0,0,0,0,0,0,0,0,0,0,0],"sum_hessian":[2.8375387E1,2.6025972E1,2.3494146E0,5.3819795E0,2.0643993E1,2.1010194E0,3.2809603E0,2.8227057E0,1.7821287E1,1.0649893E0,1.03603E0,1.0275456E0,2.2534146E0,1.0210588E0,1.801647E0,2.3607633E0,1.5460525E1],"tree_param":{"num_deleted":"0","num_feature":"42","num_nodes":"17","size_leaf_vector":"1"}},{"base_weights":[6.23011E-3,-2.0201562E-1,2.1954586E-1,-6.629586E-1,8.960626E-2,4.659241E-1,-2.2146536E-1,1.5976004E-2,-8.628351E-1,-3.4608677E-1,4.0340778E-1,8.7755494E-2,-7.896445E-2,-8.543403E-2,1.2525864E-1,-1.0574703E-2,-1.0328578E-1,4.130499E-2,-7.425536E-2,-3.6863215E-2,6.539791E-2,-5.3765684E-2,4.032976E-2,-5.060441E-2,6.1120093E-2],"categories":[],"categories_nodes":[],"categories_segments":[],"categories_sizes":[],"default_left":[0,0,0,0,0,0,0,0,0,0,0,0,0,0,0,0,0,0,0,0,0,0,0,0,0],"id":30,"left_children":[1,3,5,7,9,11,13,-1,15,17,19,-1,21,-1,23,-1,-1,-1,-1,-1,-1,-1,-1,-1,-1],"loss_changes":[1.3352759E0,2.1060662E0,1.7150546E0,1.1276407E0,1.5350775E0,2.2762742E0,1.4225016E0,0E0,5.3424025E-1,1.7548709E0,1.4782054E0,0E0,1.3564856E0,0E0,1.7650105E0,0E0,0E0,0E0,0E0,0E0,0E0,0E0,0E0,0E0,0E0],"parents":[2147483647,0,0,1,1,2,2,3,3,4,4,5,5,6,6,8,8,9,9,10,10,12,12,14,14],"right_children":[2,4,6,8,10,12,14,-1,16,18,20,-1,22,-1,24,-1,-1,-1,-1,-1,-1,-1,-1,-1,-1],"split_conditions":[1.0198237E-1,-3.0737686E-1,9.037188E-1,-9.5064884E-1,-6.793415E-1,4.9462798E-1,-1.0552418E0,1.5976004E-2,-1.3799781E0,-1.0856329E0,-1.0884097E0,8.7755494E-2,-3.8689107E-1,-8.543403E-2,-3.9443934E-1,-1.0574703E-2,-1.0328578E-1,4.130499E-2,-7.425536E-2,-3.6863215E-2,6.539791E-2,-5.3765684E-2,4.032976E-2,-5.060441E-2,6.1120093E-2],"split_indices":[22,4,38,16,41,27,27,0,4,41,11,0,29,0,35,0,0,0,0,0,0,0,0,0,0],"split_type":[0,0,0,0,0,0,0,0,0,0,0,0,0,0,0,0,0,0,0,0,0,0,0,0,0],"sum_hessian":[2.8060404E1,1.4225745E1,1.383466E1,5.019105E0,9.20664E0,8.839715E0,4.994944E0,1.0202645E0,3.9988403E0,3.8115988E0,5.395042E0,4.687823E0,4.1518927E0,1.2497469E0,3.745197E0,1.0307976E0,2.9680429E0,1.293341E0,2.5182576E0,1.2065017E0,4.18854E0,2.069075E0,2.0828173E0,1.6109698E0,2.1342273E0],"tree_param":{"num_deleted":"0","num_feature":"42","num_nodes":"25","size_leaf_vector":"1"}},{"base_weights":[2.5177281E-3,1.19296215E-1,-3.5095772E-1,-1.09407626E-1,4.262594E-1,1.9226281E-1,-6.1816657E-1,-3.5463575E-1,3.2929882E-1,5.6617737E-2,7.449393E-1,-3.4955002E-2,6.1627705E-2,-8.0583066E-1,-3.0417248E-4,3.2313295E-2,-5.3656317E-2,-3.760816E-2,6.610884E-2,-3.335877E-2,5.7070892E-2,1.2749411E-2,8.687679E-2,-9.22645E-2,-2.346583E-2],"categories":[],"categories_nodes":[],"categories_segments":[],"categories_sizes":[],"default_left":[0,0,0,0,0,0,0,0,0,0,0,0,0,0,0,0,0,0,0,0,0,0,0,0,0],"id":31,"left_children":[1,3,5,7,9,11,13,15,17,19,21,-1,-1,23,-1,-1,-1,-1,-1,-1,-1,-1,-1,-1,-1],"loss_changes":[1.2096739E0,1.591945E0,1.1754525E0,1.5594265E0,1.0889395E0,9.420326E-1,5.881696E-1,1.2933565E0,1.4952483E0,1.2992849E0,2.772057E-1,0E0,0E0,4.4811964E-2,0E0,0E0,0E0,0E0,0E0,0E0,0E0,0E0,0E0,0E0,0E0],"parents":[2147483647,0,0,1,1,2,2,3,3,4,4,5,5,6,6,7,7,8,8,9,9,10,10,13,13],"right_children":[2,4,6,8,10,12,14,16,18,20,22,-1,-1,24,-1,-1,-1,-1,-1,-1,-1,-1,-1,-1,-1],"split_conditions":[1.0629894E0,1.2238581E-1,-5.8446754E-2,2.6214585E-1,-5.3003095E-2,-5.1523536E-1,2.798636E-1,-1.1041664E0,-1.1520848E0,7.193496E-2,-1.0323905E0,-3.4955002E-2,6.1627705E-2,3.426186E-1,-3.0417248E-4,3.2313295E-2,-5.3656317E-2,-3.760816E-2,6.610884E-2,-3.335877E-2,5.7070892E-2,1.2749411E-2,8.687679E-2,-9.22645E-2,-2.346583E-2],"split_indices":[20,17,23,33,12,39,25,4,17,35,29,0,0,39,0,0,0,0,0,0,0,0,0,0,0],"split_type":[0,0,0,0,0,0,0,0,0,0,0,0,0,0,0,0,0,0,0,0,0,0,0,0,0],"sum_hessian":[2.7291016E1,2.1011803E1,6.2792125E0,1.2409585E1,8.602219E0,2.1628127E0,4.1163993E0,8.08299E0,4.326596E0,4.5279007E0,4.0743175E0,1.0266099E0,1.1362029E0,2.9165745E0,1.199825E0,1.5462577E0,6.5367317E0,1.3413686E0,2.9852273E0,2.7737107E0,1.7541898E0,1.0196496E0,3.054668E0,1.9104934E0,1.0060811E0],"tree_param":{"num_deleted":"0","num_feature":"42","num_nodes":"25","size_leaf_vector":"1"}},{"base_weights":[4.2247474E-3,8.169584E-2,-5.2065665E-1,4.8523808E-1,-4.366489E-2,-7.701557E-2,6.207773E-3,7.214839E-1,-2.99052E-2,-2.0512335E-1,5.381304E-1,7.6089287E-3,8.669699E-2,1.9450365E-2,-5.1294502E-2,7.980709E-2,-4.889698E-3],"categories":[],"categories_nodes":[],"categories_segments":[],"categories_sizes":[],"default_left":[0,0,0,0,0,0,0,0,0,0,0,0,0,0,0,0,0],"id":32,"left_children":[1,3,5,7,9,-1,-1,11,-1,13,15,-1,-1,-1,-1,-1,-1],"loss_changes":[1.1718769E0,1.289208E0,5.868702E-1,1.3318416E0,1.9930329E0,0E0,0E0,3.9620757E-1,0E0,2.1186926E0,7.454816E-1,0E0,0E0,0E0,0E0,0E0,0E0],"parents":[2147483647,0,0,1,1,2,2,3,3,4,4,7,7,9,9,10,10],"right_children":[2,4,6,8,10,-1,-1,12,-1,14,16,-1,-1,-1,-1,-1,-1],"split_conditions":[1.5213399E0,-9.292183E-1,1.4660564E-1,1.0944175E0,5.7433313E-1,-7.701557E-2,6.207773E-3,-1.0962783E0,-2.99052E-2,-6.1140643E-3,7.792524E-1,7.6089287E-3,8.669699E-2,1.9450365E-2,-5.1294502E-2,7.980709E-2,-4.889698E-3],"split_indices":[26,15,22,0,26,0,0,36,0,0,38,0,0,0,0,0,0],"split_type":[0,0,0,0,0,0,0,0,0,0,0,0,0,0,0,0,0],"sum_hessian":[2.6773106E1,2.406546E1,2.7076442E0,5.02358E0,1.904188E1,1.6707044E0,1.0369399E0,3.9222043E0,1.1013757E0,1.5412164E1,3.629717E0,1.0016698E0,2.9205346E0,6.866245E0,8.545918E0,2.2665558E0,1.3631613E0],"tree_param":{"num_deleted":"0","num_feature":"42","num_nodes":"17","size_leaf_vector":"1"}},{"base_weights":[5.6100795E-3,8.427884E-2,-4.9779356E-1,-3.1585285E-1,2.4371752E-1,-8.469247E-2,2.4285002E-2,1.3689858E-1,-5.9478855E-1,4.809303E-1,-2.3128055E-1,6.218804E-2,-5.037449E-2,-7.934592E-2,-2.082846E-3,-2.4795455E-3,8.502424E-2,-6.288379E-2,4.788102E-2],"categories":[],"categories_nodes":[],"categories_segments":[],"categories_sizes":[],"default_left":[0,0,0,0,0,0,0,0,0,0,0,0,0,0,0,0,0,0,0],"id":33,"left_children":[1,3,5,7,9,-1,-1,11,13,15,17,-1,-1,-1,-1,-1,-1,-1,-1],"loss_changes":[1.1249573E0,1.6403927E0,1.1988444E0,1.0182502E0,2.1493225E0,0E0,0E0,1.4444858E0,5.28221E-1,2.334861E0,2.1924584E0,0E0,0E0,0E0,0E0,0E0,0E0,0E0,0E0],"parents":[2147483647,0,0,1,1,2,2,3,3,4,4,7,7,8,8,9,9,10,10],"right_children":[2,4,6,8,10,-1,-1,12,14,16,18,-1,-1,-1,-1,-1,-1,-1,-1],"split_conditions":[1.3066376E0,-8.3336025E-1,-1.4412342E-1,5.09922E-2,9.959637E-1,-8.469247E-2,2.4285002E-2,6.199846E-2,2.8174615E-1,-2.6588574E-1,9.900495E-1,6.218804E-2,-5.037449E-2,-7.934592E-2,-2.082846E-3,-2.4795455E-3,8.502424E-2,-6.288379E-2,4.788102E-2],"split_indices":[16,37,8,15,23,0,0,8,19,29,7,0,0,0,0,0,0,0,0],"split_type":[0,0,0,0,0,0,0,0,0,0,0,0,0,0,0,0,0,0,0],"sum_hessian":[2.6347105E1,2.3506275E1,2.8408308E0,6.41813E0,1.7088144E1,1.8331879E0,1.0076429E0,2.6408591E0,3.7772708E0,1.1388346E1,5.699798E0,1.5196995E0,1.1211597E0,2.5219078E0,1.255363E0,5.2001987E0,6.1881475E0,3.7273817E0,1.9724166E0],"tree_param":{"num_deleted":"0","num_feature":"42","num_nodes":"19","size_leaf_vector":"1"}},{"base_weights":[3.2229265E-3,-6.702953E-2,5.6589074E-2,-2.7200586E-1,1.6103126E-1,-5.29509E-1,2.5502315E-1,3.9087644E-1,-3.175784E-1,-6.9976054E-2,3.1430267E-2,6.822219E-2,-2.354568E-2,-1.9496031E-2,6.892559E-2,-6.88132E-2,2.8807312E-2],"categories":[],"categories_nodes":[],"categories_segments":[],"categories_sizes":[],"default_left":[0,0,0,0,0,0,0,0,0,0,0,0,0,0,0,0,0],"id":34,"left_children":[1,3,-1,5,7,9,11,13,15,-1,-1,-1,-1,-1,-1,-1,-1],"loss_changes":[1.0940608E0,1.1959507E0,0E0,1.9470615E0,1.4765964E0,1.555203E0,1.220324E0,1.6645907E0,1.2172251E0,0E0,0E0,0E0,0E0,0E0,0E0,0E0,0E0],"parents":[2147483647,0,0,1,1,3,3,4,4,5,5,6,6,7,7,8,8],"right_children":[2,4,-1,6,8,10,12,14,16,-1,-1,-1,-1,-1,-1,-1,-1],"split_conditions":[1.3577601E0,1.0198237E-1,5.6589074E-2,4.238332E-1,1.0956525E0,9.388941E-1,5.702423E-1,-1.0210887E0,-3.0164555E-1,-6.9976054E-2,3.1430267E-2,6.822219E-2,-2.354568E-2,-1.9496031E-2,6.892559E-2,-6.88132E-2,2.8807312E-2],"split_indices":[21,22,0,8,38,34,23,30,27,0,0,0,0,0,0,0,0],"split_type":[0,0,0,0,0,0,0,0,0,0,0,0,0,0,0,0,0],"sum_hessian":[2.5717978E1,2.3646448E1,2.0715294E0,1.2352018E1,1.129443E1,8.294615E0,4.0574036E0,7.753997E0,3.5404332E0,7.0440817E0,1.2505335E0,1.9596545E0,2.0977492E0,2.7335536E0,5.020443E0,2.1120443E0,1.428389E0],"tree_param":{"num_deleted":"0","num_feature":"42","num_nodes":"17","size_leaf_vector":"1"}},{"base_weights":[6.041387E-3,1.17912285E-1,-3.323419E-1,-9.804636E-2,4.1174442E-1,1.8526709E-2,-5.774747E-1,-4.887405E-1,1.4711694E-1,6.572023E-2,7.104803E-1,-7.923171E-2,-3.5439797E-3,-7.6509885E-2,1.4373665E-2,-1.9257896E-2,6.556545E-2,-2.8652841E-2,5.3118616E-2,8.266119E-2,1.7489018E-2],"categories":[],"categories_nodes":[],"categories_segments":[],"categories_sizes":[],"default_left":[0,0,0,0,0,0,0,0,0,0,0,0,0,0,0,0,0,0,0,0,0],"id":35,"left_children":[1,3,5,7,9,-1,11,13,15,17,19,-1,-1,-1,-1,-1,-1,-1,-1,-1,-1],"loss_changes":[1.0321778E0,1.3381584E0,9.671699E-1,1.2783673E0,8.6877215E-1,0E0,5.35952E-1,9.992727E-1,1.5959884E0,1.0056542E0,1.4471722E-1,0E0,0E0,0E0,0E0,0E0,0E0,0E0,0E0,0E0,0E0],"parents":[2147483647,0,0,1,1,2,2,3,3,4,4,6,6,7,7,8,8,9,9,10,10],"right_children":[2,4,6,8,10,-1,12,14,16,18,20,-1,-1,-1,-1,-1,-1,-1,-1,-1,-1],"split_conditions":[1.0629894E0,1.2238581E-1,-5.8446754E-2,-3.9646447E-1,-5.3003095E-2,1.8526709E-2,6.1413187E-1,8.2323956E-1,2.8074129E-2,7.193496E-2,1.0788784E0,-7.923171E-2,-3.5439797E-3,-7.6509885E-2,1.4373665E-2,-1.9257896E-2,6.556545E-2,-2.8652841E-2,5.3118616E-2,8.266119E-2,1.7489018E-2],"split_indices":[20,17,23,5,12,0,33,25,10,35,16,0,0,0,0,0,0,0,0,0,0],"split_type":[0,0,0,0,0,0,0,0,0,0,0,0,0,0,0,0,0,0,0,0,0],"sum_hessian":[2.5231256E1,1.9451916E1,5.7793407E0,1.1595705E1,7.85621E0,1.9358736E0,3.843467E0,4.0878096E0,7.507896E0,4.2052665E0,3.6509438E0,2.4218075E0,1.4216595E0,2.6988652E0,1.3889443E0,4.873665E0,2.6342309E0,2.6125813E0,1.5926852E0,2.5538318E0,1.097112E0],"tree_param":{"num_deleted":"0","num_feature":"42","num_nodes":"21","size_leaf_vector":"1"}},{"base_weights":[7.5252983E-3,4.65561E-1,-7.4389376E-2,-2.0250952E-2,7.618389E-2,-3.3858722E-1,1.2066857E-1,3.61952E-2,-4.8793527E-1,-8.272138E-2,7.4598745E-2,-7.998693E-2,2.2716299E-3,3.2106142E-2,-3.8253542E-2],"categories":[],"categories_nodes":[],"categories_segments":[],"categories_sizes":[],"default_left":[0,0,0,0,0,0,0,0,0,0,0,0,0,0,0],"id":36,"left_children":[1,3,5,-1,-1,7,9,-1,11,13,-1,-1,-1,-1,-1],"loss_changes":[1.0024297E0,9.561049E-1,1.212908E0,0E0,0E0,1.2147346E0,1.8194983E0,0E0,1.3888044E0,1.4943038E0,0E0,0E0,0E0,0E0,0E0],"parents":[2147483647,0,0,1,1,2,2,5,5,6,6,8,8,9,9],"right_children":[2,4,6,-1,-1,8,10,-1,12,14,-1,-1,-1,-1,-1],"split_conditions":[-1.1630679E0,-7.627766E-1,-4.2033827E-1,-2.0250952E-2,7.618389E-2,-1.2333997E0,9.6231824E-1,3.61952E-2,1.790099E-2,-7.3294406E-4,7.4598745E-2,-7.998693E-2,2.2716299E-3,3.2106142E-2,-3.8253542E-2],"split_indices":[38,8,17,0,0,30,39,0,5,5,0,0,0,0,0],"split_type":[0,0,0,0,0,0,0,0,0,0,0,0,0,0,0],"sum_hessian":[2.479427E1,3.050962E0,2.1743307E1,1.0345856E0,2.0163765E0,8.922425E0,1.2820882E1,1.3177546E0,7.6046705E0,1.0329003E1,2.4918776E0,4.369295E0,3.235376E0,4.371158E0,5.9578457E0],"tree_param":{"num_deleted":"0","num_feature":"42","num_nodes":"15","size_leaf_vector":"1"}},{"base_weights":[1.0432165E-2,-4.9106574E-1,8.080453E-2,3.4284053E-4,-7.201063E-2,-3.0772483E-1,1.9926837E-1,-5.549929E-1,2.4015583E-2,-4.514986E-2,4.6098536E-1,-1.9804712E-3,-7.514676E-2,2.4334323E-2,-5.576582E-2,8.216675E-2,-9.935904E-3],"categories":[],"categories_nodes":[],"categories_segments":[],"categories_sizes":[],"default_left":[0,0,0,0,0,0,0,0,0,0,0,0,0,0,0,0,0],"id":37,"left_children":[1,3,5,-1,-1,7,9,11,-1,13,15,-1,-1,-1,-1,-1,-1],"loss_changes":[9.367559E-1,3.7274337E-1,1.1268234E0,0E0,0E0,9.1932684E-1,1.194474E0,4.372561E-1,0E0,1.6731126E0,1.8903725E0,0E0,0E0,0E0,0E0,0E0,0E0],"parents":[2147483647,0,0,1,1,2,2,5,5,6,6,7,7,9,9,10,10],"right_children":[2,4,6,-1,-1,8,10,12,-1,14,16,-1,-1,-1,-1,-1,-1],"split_conditions":[-1.4000242E0,5.1827665E-2,-9.7081167E-1,3.4284053E-4,-7.201063E-2,3.2013515E-1,9.900495E-1,9.900495E-1,2.4015583E-2,9.820285E-1,8.742527E-1,-1.9804712E-3,-7.514676E-2,2.4334323E-2,-5.576582E-2,8.216675E-2,-9.935904E-3],"split_indices":[36,33,37,0,0,34,7,7,0,23,2,0,0,0,0,0,0],"split_type":[0,0,0,0,0,0,0,0,0,0,0,0,0,0,0,0,0],"sum_hessian":[2.441896E1,2.2692673E0,2.2149693E1,1.0301735E0,1.2390938E0,4.8021884E0,1.7347506E1,3.2999034E0,1.502285E0,9.398089E0,7.9494157E0,1.1817282E0,2.118175E0,6.3492575E0,3.0488317E0,4.552624E0,3.3967917E0],"tree_param":{"num_deleted":"0","num_feature":"42","num_nodes":"17","size_leaf_vector":"1"}},{"base_weights":[6.453917E-3,5.1281536E-1,-6.537572E-2,1.557786E-2,6.0409706E-2,2.9353097E-1,-1.9927703E-1,-4.747747E-2,6.910294E-1,-2.9664606E-1,4.689392E-2,8.218899E-2,1.1083854E-2,-4.1121002E-2,3.4688458E-2],"categories":[],"categories_nodes":[],"categories_segments":[],"categories_sizes":[],"default_left":[0,0,0,0,0,0,0,0,0,0,0,0,0,0,0],"id":38,"left_children":[1,3,5,-1,-1,7,9,-1,11,13,-1,-1,-1,-1,-1],"loss_changes":[9.408521E-1,1.0581374E-2,1.1510347E0,0E0,0E0,2.338039E0,1.2551042E0,0E0,2.691331E-1,1.2915368E0,0E0,0E0,0E0,0E0,0E0],"parents":[2147483647,0,0,1,1,2,2,5,5,6,6,8,8,9,9],"right_children":[2,4,6,-1,-1,8,10,-1,12,14,-1,-1,-1,-1,-1],"split_conditions":[-1.2849786E0,-8.0097425E-1,-6.306297E-1,1.557786E-2,6.0409706E-2,-4.7520265E-1,1.3342588E0,-4.747747E-2,8.4496516E-1,1.3383622E0,4.689392E-2,8.218899E-2,1.1083854E-2,-4.1121002E-2,3.4688458E-2],"split_indices":[40,39,23,0,0,30,22,0,41,30,0,0,0,0,0],"split_type":[0,0,0,0,0,0,0,0,0,0,0,0,0,0,0],"sum_hessian":[2.3945904E1,2.2121406E0,2.1733763E1,1.001494E0,1.2106465E0,5.5813813E0,1.6152382E1,1.83677E0,3.7446113E0,1.4583423E1,1.5689585E0,2.7155423E0,1.0290688E0,1.2686016E1,1.897407E0],"tree_param":{"num_deleted":"0","num_feature":"42","num_nodes":"15","size_leaf_vector":"1"}},{"base_weights":[1.2870292E-2,-1.9312726E-1,1.8512383E-1,-4.0100607E-1,4.7498968E-1,-1.5177183E-1,5.580214E-1,-6.39521E-1,3.105648E-1,6.1603468E-2,8.762491E-3,5.9423506E-2,-3.4659737E-1,7.0945364E-1,-1.4806411E-2,4.6637207E-3,-8.032396E-2,-1.5649121E-2,6.256383E-2,3.818821E-2,-5.3259052E-2,6.651631E-3,8.3370194E-2],"categories":[],"categories_nodes":[],"categories_segments":[],"categories_sizes":[],"default_left":[0,0,0,0,0,0,0,0,0,0,0,0,0,0,0,0,0,0,0,0,0,0,0],"id":39,"left_children":[1,3,5,7,9,11,13,15,17,-1,-1,-1,19,21,-1,-1,-1,-1,-1,-1,-1,-1,-1],"loss_changes":[9.086316E-1,1.8143228E0,1.8318607E0,1.8040864E0,1.22620165E-1,1.3821548E0,8.3371973E-1,8.700602E-1,5.464256E-1,0E0,0E0,0E0,1.1583955E0,4.0659976E-1,0E0,0E0,0E0,0E0,0E0,0E0,0E0,0E0,0E0],"parents":[2147483647,0,0,1,1,2,2,3,3,4,4,5,5,6,6,7,7,8,8,12,12,13,13],"right_children":[2,4,6,8,10,12,14,16,18,-1,-1,-1,20,22,-1,-1,-1,-1,-1,-1,-1,-1,-1],"split_conditions":[-2.0862803E-1,8.887036E-1,5.7226934E-2,9.61451E-1,7.4448776E-1,-9.482692E-1,1.3814042E0,-7.116614E-1,-5.6364053E-1,6.1603468E-2,8.762491E-3,5.9423506E-2,-9.949089E-1,-9.205337E-1,-1.4806411E-2,4.6637207E-3,-8.032396E-2,-1.5649121E-2,6.256383E-2,3.818821E-2,-5.3259052E-2,6.651631E-3,8.3370194E-2],"split_indices":[10,32,39,15,6,21,19,23,23,0,0,0,38,37,0,0,0,0,0,0,0,0,0],"split_type":[0,0,0,0,0,0,0,0,0,0,0,0,0,0,0,0,0,0,0,0,0,0,0],"sum_hessian":[2.3599365E1,1.0691841E1,1.2907525E1,8.459529E0,2.2323127E0,7.0926437E0,5.8148813E0,6.411636E0,2.0478928E0,1.203705E0,1.0286077E0,1.0442016E0,6.048442E0,4.784082E0,1.0307992E0,1.3728871E0,5.0387487E0,1.0277313E0,1.0201614E0,1.0159732E0,5.032469E0,1.023453E0,3.7606292E0],"tree_param":{"num_deleted":"0","num_feature":"42","num_nodes":"23","size_leaf_vector":"1"}},{"base_weights":[1.8881334E-2,-4.7326538E-1,8.890324E-2,-6.838068E-2,-3.908046E-3,-8.580244E-2,3.4869066E-1,6.372086E-2,-2.1008685E-1,5.814273E-1,-3.68972E-2,3.950415E-2,-3.576563E-2,8.541657E-2,3.597118E-3],"categories":[],"categories_nodes":[],"categories_segments":[],"categories_sizes":[],"default_left":[0,0,0,0,0,0,0,0,0,0,0,0,0,0,0],"id":40,"left_children":[1,3,5,-1,-1,7,9,-1,11,13,-1,-1,-1,-1,-1],"loss_changes":[8.722593E-1,2.62033E-1,1.0253196E0,0E0,0E0,1.3843207E0,1.7204448E0,0E0,1.2688208E0,1.0398579E0,0E0,0E0,0E0,0E0,0E0],"parents":[2147483647,0,0,1,1,2,2,5,5,6,6,8,8,9,9],"right_children":[2,4,6,-1,-1,8,10,-1,12,14,-1,-1,-1,-1,-1],"split_conditions":[-1.4000242E0,-4.266728E-1,1.1255988E-1,-6.838068E-2,-3.908046E-3,-1.0770012E0,1.0914716E0,6.372086E-2,-1.2267493E0,6.499016E-1,-3.68972E-2,3.950415E-2,-3.576563E-2,8.541657E-2,3.597118E-3],"split_indices":[36,17,29,0,0,38,23,0,4,28,0,0,0,0,0],"split_type":[0,0,0,0,0,0,0,0,0,0,0,0,0,0,0],"sum_hessian":[2.3090515E1,2.15878E0,2.0931736E1,1.0666351E0,1.092145E0,1.29157095E1,8.0160265E0,1.2891573E0,1.1626552E1,6.1963835E0,1.8196433E0,1.9506522E0,9.6758995E0,3.7535644E0,2.4428189E0],"tree_param":{"num_deleted":"0","num_feature":"42","num_nodes":"15","size_leaf_vector":"1"}},{"base_weights":[1.9701794E-2,1.2790993E-1,-3.0658403E-1,-7.1905665E-2,3.9985156E-1,1.6558057E-2,-5.305836E-1,4.9019616E-2,-2.0412101E-1,-8.9577725E-3,5.722074E-1,-7.007813E-2,1.6497398E-3,-3.4924883E-2,4.7067493E-2,-1.5181139E-2,7.483165E-2],"categories":[],"categories_nodes":[],"categories_segments":[],"categories_sizes":[],"default_left":[0,0,0,0,0,0,0,0,0,0,0,0,0,0,0,0,0],"id":41,"left_children":[1,3,5,7,9,-1,11,-1,13,-1,15,-1,-1,-1,-1,-1,-1],"loss_changes":[8.768887E-1,1.035229E0,7.4392337E-1,9.565611E-1,7.2591317E-1,0E0,4.2544556E-1,0E0,1.1472404E0,0E0,8.850349E-1,0E0,0E0,0E0,0E0,0E0,0E0],"parents":[2147483647,0,0,1,1,2,2,3,3,4,4,6,6,8,8,10,10],"right_children":[2,4,6,8,10,-1,12,-1,14,-1,16,-1,-1,-1,-1,-1,-1],"split_conditions":[1.0629894E0,1.2238581E-1,-5.8446754E-2,-9.354219E-1,-9.0835696E-1,1.6558057E-2,2.798636E-1,4.9019616E-2,1.2183542E0,-8.9577725E-3,-1.0479788E0,-7.007813E-2,1.6497398E-3,-3.4924883E-2,4.7067493E-2,-1.5181139E-2,7.483165E-2],"split_indices":[20,17,23,40,29,0,25,0,34,0,35,0,0,0,0,0,0],"split_type":[0,0,0,0,0,0,0,0,0,0,0,0,0,0,0,0,0],"sum_hessian":[2.2725574E1,1.7522472E1,5.203101E0,1.0524748E1,6.997725E0,1.7580788E0,3.4450223E0,1.4885882E0,9.0361595E0,1.947576E0,5.050149E0,2.4132965E0,1.0317258E0,7.833791E0,1.2023692E0,1.0150499E0,4.035099E0],"tree_param":{"num_deleted":"0","num_feature":"42","num_nodes":"17","size_leaf_vector":"1"}},{"base_weights":[2.0876188E-2,9.5029116E-2,-4.3288007E-1,-2.796113E-1,2.4534172E-1,7.999859E-3,-6.936264E-2,2.828688E-2,-4.4996214E-1,4.4440106E-1,-1.6508618E-1,1.4001532E-2,-6.6285364E-2,-8.527116E-5,7.88443E-2,-4.9230512E-2,4.1450158E-2],"categories":[],"categories_nodes":[],"categories_segments":[],"categories_sizes":[],"default_left":[0,0,0,0,0,0,0,0,0,0,0,0,0,0,0,0,0],"id":42,"left_children":[1,3,5,7,9,-1,-1,-1,11,13,15,-1,-1,-1,-1,-1,-1],"loss_changes":[8.2734084E-1,1.2457649E0,5.1848334E-1,7.455888E-1,1.3357043E0,0E0,0E0,0E0,7.6337755E-1,1.6360166E0,1.299389E0,0E0,0E0,0E0,0E0,0E0,0E0],"parents":[2147483647,0,0,1,1,2,2,3,3,4,4,8,8,9,9,10,10],"right_children":[2,4,6,8,10,-1,-1,-1,12,14,16,-1,-1,-1,-1,-1,-1],"split_conditions":[1.3066376E0,-8.3336025E-1,5.387893E-2,-9.306937E-1,9.959637E-1,7.999859E-3,-6.936264E-2,2.828688E-2,-6.911566E-1,-2.6588574E-1,9.900495E-1,1.4001532E-2,-6.6285364E-2,-8.527116E-5,7.88443E-2,-4.9230512E-2,4.1450158E-2],"split_indices":[16,37,29,15,23,0,0,0,40,29,7,0,0,0,0,0,0],"split_type":[0,0,0,0,0,0,0,0,0,0,0,0,0,0,0,0,0],"sum_hessian":[2.2366018E1,1.9903893E1,2.462125E0,5.452883E0,1.445101E1,1.0634841E0,1.398641E0,1.1140158E0,4.338867E0,9.67555E0,4.7754593E0,1.2412784E0,3.0975888E0,4.652229E0,5.023321E0,3.1484997E0,1.6269598E0],"tree_param":{"num_deleted":"0","num_feature":"42","num_nodes":"17","size_leaf_vector":"1"}},{"base_weights":[1.8833473E-2,-1.4096151E-1,2.2792138E-1,-2.7912357E-1,3.6419123E-1,4.7594553E-1,-2.018299E-1,4.214195E-2,-3.9493623E-1,-1.7424008E-2,6.680694E-2,7.6117806E-2,3.329564E-2,2.2167161E-2,-4.9664237E-2,-5.2630335E-2,2.2311984E-2,4.014164E-2,-3.3865236E-2],"categories":[],"categories_nodes":[],"categories_segments":[],"categories_sizes":[],"default_left":[0,0,0,0,0,0,0,0,0,0,0,0,0,0,0,0,0,0,0],"id":43,"left_children":[1,3,5,7,9,11,13,-1,15,-1,-1,-1,17,-1,-1,-1,-1,-1,-1],"loss_changes":[7.9747933E-1,1.0509701E0,1.1944711E0,1.0789052E0,6.6535836E-1,8.3723557E-1,6.6859436E-1,0E0,9.429487E-1,0E0,0E0,0E0,6.456899E-1,0E0,0E0,0E0,0E0,0E0,0E0],"parents":[2147483647,0,0,1,1,2,2,3,3,4,4,5,5,6,6,8,8,12,12],"right_children":[2,4,6,8,10,12,14,-1,16,-1,-1,-1,18,-1,-1,-1,-1,-1,-1],"split_conditions":[2.9706123E-1,9.481598E-1,9.037188E-1,-1.2923934E0,-4.328683E-1,4.9462798E-1,-3.9382678E-1,4.214195E-2,1.1101283E0,-1.7424008E-2,6.680694E-2,7.6117806E-2,3.668296E-1,2.2167161E-2,-4.9664237E-2,-5.2630335E-2,2.2311984E-2,4.014164E-2,-3.3865236E-2],"split_indices":[22,38,38,40,8,27,31,0,21,0,0,0,4,0,0,0,0,0,0],"split_type":[0,0,0,0,0,0,0,0,0,0,0,0,0,0,0,0,0,0,0],"sum_hessian":[2.1907026E1,1.2601889E1,9.305139E0,1.0246784E1,2.3551044E0,5.8318744E0,3.4732645E0,1.0793096E0,9.167474E0,1.003554E0,1.3515506E0,3.1089509E0,2.7229235E0,1.5273299E0,1.9459345E0,7.6829295E0,1.4845445E0,1.328684E0,1.3942395E0],"tree_param":{"num_deleted":"0","num_feature":"42","num_nodes":"19","size_leaf_vector":"1"}},{"base_weights":[2.2746231E-2,1.26558E-1,-2.854374E-1,2.1513163E-1,-4.0629916E-2,-5.392822E-1,1.314646E-1,3.2946885E-1,-2.541199E-1,-6.873389E-2,-9.154401E-3,-2.9589316E-2,4.830211E-2,5.864897E-2,6.98967E-3,-6.735344E-2,4.2496033E-2],"categories":[],"categories_nodes":[],"categories_segments":[],"categories_sizes":[],"default_left":[0,0,0,0,0,0,0,0,0,0,0,0,0,0,0,0,0],"id":44,"left_children":[1,3,5,7,-1,9,11,13,15,-1,-1,-1,-1,-1,-1,-1,-1],"loss_changes":[7.562519E-1,9.1477454E-1,7.036241E-1,9.2528456E-1,0E0,1.9641507E-1,6.0366297E-1,8.2948506E-1,1.32228E0,0E0,0E0,0E0,0E0,0E0,0E0,0E0,0E0],"parents":[2147483647,0,0,1,1,2,2,3,3,5,5,6,6,7,7,8,8],"right_children":[2,4,6,8,-1,10,12,14,16,-1,-1,-1,-1,-1,-1,-1,-1],"split_conditions":[1.0629894E0,1.4470092E0,-2.8813684E-2,1.2374586E0,-4.0629916E-2,1.5817373E0,-4.276861E-1,-3.597616E-2,1.4500932E0,-6.873389E-2,-9.154401E-3,-2.9589316E-2,4.830211E-2,5.864897E-2,6.98967E-3,-6.735344E-2,4.2496033E-2],"split_indices":[20,9,9,14,0,20,35,38,14,0,0,0,0,0,0,0,0],"split_type":[0,0,0,0,0,0,0,0,0,0,0,0,0,0,0,0,0],"sum_hessian":[2.1508844E1,1.6530037E1,4.9788065E0,1.4685262E1,1.8447746E0,2.9121187E0,2.0666878E0,1.2047635E1,2.6376266E0,1.7862959E0,1.1258229E0,1.0042452E0,1.0624427E0,5.420734E0,6.6269016E0,1.6356072E0,1.0020194E0],"tree_param":{"num_deleted":"0","num_feature":"42","num_nodes":"17","size_leaf_vector":"1"}},{"base_weights":[1.8284004E-2,-3.9510497E-1,9.300402E-2,-1.7443969E-3,-5.878904E-2,5.549675E-1,-2.2284025E-2,7.0864014E-2,1.2807622E-2,4.1901767E-1,-1.2513767E-1,-4.3414347E-3,6.4290114E-2,2.9974745E-3,-5.238506E-2],"categories":[],"categories_nodes":[],"categories_segments":[],"categories_sizes":[],"default_left":[0,0,0,0,0,0,0,0,0,0,0,0,0,0,0],"id":45,"left_children":[1,3,5,-1,-1,7,9,-1,-1,11,13,-1,-1,-1,-1],"loss_changes":[7.20934E-1,2.504918E-1,1.054588E0,0E0,0E0,1.6816247E-1,8.0690217E-1,0E0,0E0,3.7699568E-1,8.970154E-1,0E0,0E0,0E0,0E0],"parents":[2147483647,0,0,1,1,2,2,5,5,6,6,9,9,10,10],"right_children":[2,4,6,-1,-1,8,10,-1,-1,12,14,-1,-1,-1,-1],"split_conditions":[-1.279032E0,3.8993962E-2,-1.1390877E0,-1.7443969E-3,-5.878904E-2,1.4228857E-1,-9.294975E-1,7.0864014E-2,1.2807622E-2,-1.4412342E-1,1.1354626E0,-4.3414347E-3,6.4290114E-2,2.9974745E-3,-5.238506E-2],"split_indices":[36,20,16,0,0,5,24,0,0,8,28,0,0,0,0],"split_type":[0,0,0,0,0,0,0,0,0,0,0,0,0,0,0],"sum_hessian":[2.1150286E1,2.5813181E0,1.8568968E1,1.240905E0,1.3404131E0,2.9468963E0,1.5622071E1,1.6815645E0,1.2653319E0,2.3717916E0,1.3250279E1,1.0366573E0,1.3351341E0,1.0205015E1,3.045265E0],"tree_param":{"num_deleted":"0","num_feature":"42","num_nodes":"15","size_leaf_vector":"1"}},{"base_weights":[1.8328657E-2,-5.388069E-2,7.2114386E-2,-3.890681E-2,6.176128E-2,6.8384565E-2,-5.972821E-1,2.2994773E-2,-2.3528075E-2,-1.695594E-2,-7.323048E-2],"categories":[],"categories_nodes":[],"categories_segments":[],"categories_sizes":[],"default_left":[0,0,0,0,0,0,0,0,0,0,0],"id":46,"left_children":[1,-1,3,5,-1,7,9,-1,-1,-1,-1],"loss_changes":[6.958062E-1,0E0,1.2882627E0,1.1363208E0,0E0,8.5064465E-1,5.197525E-2,0E0,0E0,0E0,0E0],"parents":[2147483647,0,0,2,2,3,3,5,5,6,6],"right_children":[2,-1,4,6,-1,8,10,-1,-1,-1,-1],"split_conditions":[-1.4380661E0,-5.388069E-2,1.0359719E0,7.982081E-1,6.176128E-2,5.8825886E-1,9.183822E-1,2.2994773E-2,-2.3528075E-2,-1.695594E-2,-7.323048E-2],"split_indices":[32,0,30,30,0,11,37,0,0,0,0],"split_type":[0,0,0,0,0,0,0,0,0,0,0],"sum_hessian":[2.0923239E1,1.0481715E0,1.9875067E1,1.7285711E1,2.5893543E0,1.5235711E1,2.0500004E0,1.0103153E1,5.1325583E0,1.0331115E0,1.0168891E0],"tree_param":{"num_deleted":"0","num_feature":"42","num_nodes":"11","size_leaf_vector":"1"}},{"base_weights":[1.2947507E-2,-2.9111376E-1,1.1204458E-1,2.3810456E-2,-4.877679E-1,4.699275E-1,-5.5714555E-2,-7.1589805E-2,3.5356698E-3,6.968252E-1,-2.7916417E-2,-1.8891479E-1,6.1685313E-2,1.1443346E-2,8.305806E-2,2.5450924E-2,-3.530187E-2],"categories":[],"categories_nodes":[],"categories_segments":[],"categories_sizes":[],"default_left":[0,0,0,0,0,0,0,0,0,0,0,0,0,0,0,0,0],"id":47,"left_children":[1,3,5,-1,7,9,11,-1,-1,13,-1,15,-1,-1,-1,-1,-1],"loss_changes":[6.8638206E-1,7.001011E-1,1.0519875E0,0E0,5.526706E-1,1.1393722E0,1.2387724E0,0E0,0E0,2.595966E-1,0E0,9.064207E-1,0E0,0E0,0E0,0E0,0E0],"parents":[2147483647,0,0,1,1,2,2,4,4,5,5,6,6,9,9,11,11],"right_children":[2,4,6,-1,8,10,12,-1,-1,14,-1,16,-1,-1,-1,-1,-1],"split_conditions":[-9.7081167E-1,-5.3387517E-1,-5.891285E-1,2.3810456E-2,-1.4823152E-1,1.0653226E0,1.0359719E0,-7.1589805E-2,3.5356698E-3,-1.1071117E0,-2.7916417E-2,-1.0299101E0,6.1685313E-2,1.1443346E-2,8.305806E-2,2.5450924E-2,-3.530187E-2],"split_indices":[37,5,32,0,2,18,30,0,0,20,0,28,0,0,0,0,0],"split_type":[0,0,0,0,0,0,0,0,0,0,0,0,0,0,0,0,0],"sum_hessian":[2.0696981E1,4.611076E0,1.6085905E1,1.1921334E0,3.4189422E0,4.5589757E0,1.152693E1,2.1241257E0,1.2948166E0,3.5526586E0,1.0063171E0,1.0221669E1,1.3052604E0,1.0100939E0,2.5425646E0,2.612243E0,7.6094265E0],"tree_param":{"num_deleted":"0","num_feature":"42","num_nodes":"17","size_leaf_vector":"1"}},{"base_weights":[1.5575681E-2,8.155151E-2,-4.1582625E-2,2.3773652E-1,-1.7162463E-1,4.245498E-1,-1.2661125E-1,4.2682242E-1,-4.699813E-1,-1.7154422E-2,6.637352E-2,-3.9084543E-2,4.1485254E-2,6.089288E-2,2.179081E-3,-7.235449E-2,2.1214816E-3],"categories":[],"categories_nodes":[],"categories_segments":[],"categories_sizes":[],"default_left":[0,0,0,0,0,0,0,0,0,0,0,0,0,0,0,0,0],"id":48,"left_children":[1,3,-1,5,7,9,11,13,15,-1,-1,-1,-1,-1,-1,-1,-1],"loss_changes":[6.4158386E-1,8.061123E-1,0E0,8.970229E-1,1.6227611E0,1.314308E0,8.7315077E-1,2.2083724E-1,7.3662746E-1,0E0,0E0,0E0,0E0,0E0,0E0,0E0,0E0],"parents":[2147483647,0,0,1,1,3,3,4,4,5,5,6,6,7,7,8,8],"right_children":[2,4,-1,6,8,10,12,14,16,-1,-1,-1,-1,-1,-1,-1,-1],"split_conditions":[1.5213399E0,4.8301107E-1,-4.1582625E-2,7.9836893E-1,-2.978657E-1,-9.0448505E-1,5.196103E-1,7.6602235E-2,-2.0759612E-1,-1.7154422E-2,6.637352E-2,-3.9084543E-2,4.1485254E-2,6.089288E-2,2.179081E-3,-7.235449E-2,2.1214816E-3],"split_indices":[26,0,0,36,18,5,21,9,32,0,0,0,0,0,0,0,0],"split_type":[0,0,0,0,0,0,0,0,0,0,0,0,0,0,0,0,0],"sum_hessian":[2.0350239E1,1.8354223E1,1.9960148E0,1.1389188E1,6.965036E0,7.419652E0,3.9695356E0,2.1739419E0,4.791094E0,2.2056253E0,5.214027E0,2.8546405E0,1.114895E0,1.1524004E0,1.0215416E0,2.8479226E0,1.9431715E0],"tree_param":{"num_deleted":"0","num_feature":"42","num_nodes":"17","size_leaf_vector":"1"}},{"base_weights":[1.4659637E-2,-1.5045469E-1,1.8516846E-1,-3.625135E-1,5.0089777E-1,5.53398E-1,-1.4463967E-1,1.0505723E-1,-6.10542E-1,6.0113456E-2,1.4431818E-2,-5.774046E-3,7.187036E-2,-5.696106E-2,1.5586886E-1,4.229935E-2,-2.9227216E-2,-5.0046276E-3,-7.3990725E-2,4.702737E-2,-3.2455258E-2],"categories":[],"categories_nodes":[],"categories_segments":[],"categories_sizes":[],"default_left":[0,0,0,0,0,0,0,0,0,0,0,0,0,0,0,0,0,0,0,0,0],"id":49,"left_children":[1,3,5,7,9,11,13,15,17,-1,-1,-1,-1,-1,19,-1,-1,-1,-1,-1,-1],"loss_changes":[6.183367E-1,1.7295544E0,1.3875812E0,1.1118993E0,2.663356E-2,5.763377E-1,9.1535056E-1,6.269887E-1,4.0165043E-1,0E0,0E0,0E0,0E0,0E0,8.438967E-1,0E0,0E0,0E0,0E0,0E0,0E0],"parents":[2147483647,0,0,1,1,2,2,3,3,4,4,5,5,6,6,7,7,8,8,14,14],"right_children":[2,4,6,8,10,12,14,16,18,-1,-1,-1,-1,-1,20,-1,-1,-1,-1,-1,-1],"split_conditions":[-1.07146546E-1,8.887036E-1,2.8032988E-2,-1.0267694E0,5.3761E-1,-9.205337E-1,-7.345482E-1,6.2099445E-1,-8.803268E-1,6.0113456E-2,1.4431818E-2,-5.774046E-3,7.187036E-2,-5.696106E-2,4.67331E-1,4.229935E-2,-2.9227216E-2,-5.0046276E-3,-7.3990725E-2,4.702737E-2,-3.2455258E-2],"split_indices":[10,32,6,10,2,37,41,6,39,0,0,0,0,0,37,0,0,0,0,0,0],"split_type":[0,0,0,0,0,0,0,0,0,0,0,0,0,0,0,0,0,0,0,0,0],"sum_hessian":[1.9973528E1,1.0207034E1,9.766494E0,8.034659E0,2.1723747E0,4.2941513E0,5.472343E0,2.9846253E0,5.050034E0,1.160356E0,1.0120186E0,1.052764E0,3.2413874E0,1.895827E0,3.576516E0,1.6220762E0,1.3625493E0,1.2070702E0,3.842964E0,2.1745412E0,1.4019744E0],"tree_param":{"num_deleted":"0","num_feature":"42","num_nodes":"21","size_leaf_vector":"1"}},{"base_weights":[1.5270082E-2,-3.7504256E-1,8.661933E-2,-6.699393E-4,-5.2886765E-2,5.223981E-1,-2.2367956E-2,6.732865E-2,1.0338428E-2,6.571259E-2,-5.264764E-2,1.6590176E-2,-4.9799927E-2],"categories":[],"categories_nodes":[],"categories_segments":[],"categories_sizes":[],"default_left":[0,0,0,0,0,0,0,0,0,0,0,0,0],"id":50,"left_children":[1,3,5,-1,-1,7,9,-1,-1,11,-1,-1,-1],"loss_changes":[6.047036E-1,1.8701825E-1,8.753363E-1,0E0,0E0,1.6299844E-1,7.2306216E-1,0E0,0E0,8.782821E-1,0E0,0E0,0E0],"parents":[2147483647,0,0,1,1,2,2,5,5,6,6,9,9],"right_children":[2,4,6,-1,-1,8,10,-1,-1,12,-1,-1,-1],"split_conditions":[-1.279032E0,5.1827665E-2,-1.1390877E0,-6.699393E-4,-5.2886765E-2,1.4228857E-1,1.4470092E0,6.732865E-2,1.0338428E-2,1.5117973E0,-5.264764E-2,1.6590176E-2,-4.9799927E-2],"split_indices":[36,33,16,0,0,5,9,0,0,40,0,0,0],"split_type":[0,0,0,0,0,0,0,0,0,0,0,0,0],"sum_hessian":[1.9547514E1,2.3632169E0,1.7184296E1,1.003597E0,1.3596197E0,2.6790564E0,1.450524E1,1.5235758E0,1.1554806E0,1.3088068E1,1.4171721E0,1.1712152E1,1.3759166E0],"tree_param":{"num_deleted":"0","num_feature":"42","num_nodes":"13","size_leaf_vector":"1"}},{"base_weights":[1.0899513E-2,-5.084306E-2,4.648998E-2,2.8736156E-1,-1.4988458E-1,-1.9825978E-2,5.927369E-2,4.535785E-2,-2.3092128E-1,3.189682E-2,-3.2517675E-2],"categories":[],"categories_nodes":[],"categories_segments":[],"categories_sizes":[],"default_left":[0,0,0,0,0,0,0,0,0,0,0],"id":51,"left_children":[1,3,-1,5,7,-1,-1,-1,9,-1,-1],"loss_changes":[5.934887E-1,6.7269844E-1,0E0,7.997585E-1,8.478854E-1,0E0,0E0,0E0,8.324504E-1,0E0,0E0],"parents":[2147483647,0,0,1,1,3,3,4,4,8,8],"right_children":[2,4,-1,6,8,-1,-1,-1,10,-1,-1],"split_conditions":[1.3577601E0,-9.294975E-1,4.648998E-2,-7.032811E-1,-1.2442244E0,-1.9825978E-2,5.927369E-2,4.535785E-2,-1.1390877E0,3.189682E-2,-3.2517675E-2],"split_indices":[21,24,0,13,40,0,0,0,16,0,0],"split_type":[0,0,0,0,0,0,0,0,0,0,0],"sum_hessian":[1.9329237E1,1.7796923E1,1.5323131E0,3.6005218E0,1.4196402E1,1.5254505E0,2.0750713E0,1.1364325E0,1.3059969E1,1.5621647E0,1.1497804E1],"tree_param":{"num_deleted":"0","num_feature":"42","num_nodes":"11","size_leaf_vector":"1"}},{"base_weights":[1.6600024E-2,-1.2850414E-1,2.0567314E-1,-3.5142788E-1,1.4797947E-1,6.1548304E-2,-4.9918313E-2,1.1261453E-1,-5.9317887E-1,5.355055E-2,-1.892574E-1,-3.1158563E-1,3.4842163E-1,5.8376964E-2,-3.7547678E-2,-1.0072692E-2,-7.13198E-2,-5.888757E-2,1.8147135E-2,-6.0982477E-2,2.1378113E-2,5.567668E-2,-4.099964E-3],"categories":[],"categories_nodes":[],"categories_segments":[],"categories_sizes":[],"default_left":[0,0,0,0,0,0,0,0,0,0,0,0,0,0,0,0,0,0,0,0,0,0,0],"id":52,"left_children":[1,3,5,7,9,-1,11,13,15,-1,17,19,21,-1,-1,-1,-1,-1,-1,-1,-1,-1,-1],"loss_changes":[5.7864416E-1,7.9184E-1,9.864416E-1,8.455457E-1,8.9355236E-1,0E0,7.9071367E-1,9.5926136E-1,2.073437E-1,0E0,6.965116E-1,8.319677E-1,2.7164406E-1,0E0,0E0,0E0,0E0,0E0,0E0,0E0,0E0,0E0,0E0],"parents":[2147483647,0,0,1,1,2,2,3,3,4,4,6,6,7,7,8,8,10,10,11,11,12,12],"right_children":[2,4,6,8,10,-1,12,14,16,-1,18,20,22,-1,-1,-1,-1,-1,-1,-1,-1,-1,-1],"split_conditions":[2.9706123E-1,1.2238581E-1,-6.192244E-1,-9.1926825E-1,-1.3179632E-1,6.1548304E-2,1.1255988E-1,5.963944E-1,-3.423876E-1,5.355055E-2,6.4262503E-1,-4.6231022E-1,2.9403316E-2,5.8376964E-2,-3.7547678E-2,-1.0072692E-2,-7.13198E-2,-5.888757E-2,1.8147135E-2,-6.0982477E-2,2.1378113E-2,5.567668E-2,-4.099964E-3],"split_indices":[22,17,8,22,23,0,29,6,0,0,23,20,11,0,0,0,0,0,0,0,0,0,0],"split_type":[0,0,0,0,0,0,0,0,0,0,0,0,0,0,0,0,0,0,0,0,0,0,0],"sum_hessian":[1.9127878E1,1.100355E1,8.124328E0,5.9417567E0,5.0617933E0,2.5798223E0,5.5445056E0,2.2181592E0,3.7235975E0,2.0817218E0,2.9800713E0,3.4777684E0,2.0667374E0,1.0289179E0,1.1892413E0,1.0900906E0,2.6335068E0,1.1509762E0,1.8290951E0,2.1158736E0,1.3618947E0,1.0664465E0,1.0002909E0],"tree_param":{"num_deleted":"0","num_feature":"42","num_nodes":"23","size_leaf_vector":"1"}},{"base_weights":[1.669868E-2,-1.4402911E-1,1.8128768E-1,-5.216968E-1,1.1209009E-1,-2.0203637E-1,3.6560002E-1,1.3167163E-3,-6.934287E-2,4.595571E-1,-1.5076253E-1,-5.4147746E-2,2.24816E-2,5.6568295E-1,-2.9668698E-2,4.4068084E-3,6.2386245E-2,-4.069521E-2,3.1488102E-2,6.938575E-2,7.4204016E-3],"categories":[],"categories_nodes":[],"categories_segments":[],"categories_sizes":[],"default_left":[0,0,0,0,0,0,0,0,0,0,0,0,0,0,0,0,0,0,0,0,0],"id":53,"left_children":[1,3,5,7,9,11,13,-1,-1,15,17,-1,-1,19,-1,-1,-1,-1,-1,-1,-1],"loss_changes":[5.467223E-1,1.0754735E0,7.9209745E-1,4.156412E-1,7.166796E-1,6.933212E-1,1.1246926E0,0E0,0E0,1.9777709E-1,6.993766E-1,0E0,0E0,3.1952906E-1,0E0,0E0,0E0,0E0,0E0,0E0,0E0],"parents":[2147483647,0,0,1,1,2,2,3,3,4,4,5,5,6,6,9,9,10,10,13,13],"right_children":[2,4,6,8,10,12,14,-1,-1,16,18,-1,-1,20,-1,-1,-1,-1,-1,-1,-1],"split_conditions":[1.0198237E-1,-3.0737686E-1,-1.0210887E0,-1.3799781E0,-9.458435E-2,1.454669E-1,1.23755E0,1.3167163E-3,-6.934287E-2,-1.9516957E-1,4.236589E-1,-5.4147746E-2,2.24816E-2,8.7703127E-1,-2.9668698E-2,4.4068084E-3,6.2386245E-2,-4.069521E-2,3.1488102E-2,6.938575E-2,7.4204016E-3],"split_indices":[22,4,30,4,40,36,28,0,0,36,8,0,0,1,0,0,0,0,0,0,0],"split_type":[0,0,0,0,0,0,0,0,0,0,0,0,0,0,0,0,0,0,0,0,0],"sum_hessian":[1.8679865E1,9.5139885E0,9.165876E0,3.4256585E0,6.0883303E0,2.944949E0,6.2209272E0,1.0569822E0,2.3686764E0,2.2998264E0,3.7885036E0,1.4908563E0,1.4540926E0,4.8895993E0,1.3313278E0,1.0111296E0,1.2886968E0,2.5252151E0,1.2632887E0,3.551592E0,1.3380076E0],"tree_param":{"num_deleted":"0","num_feature":"42","num_nodes":"21","size_leaf_vector":"1"}},{"base_weights":[1.5795417E-2,8.303992E-2,-3.671711E-1,-2.510981E-1,2.1964203E-1,4.9543544E-3,-6.1007567E-2,7.17694E-2,-5.1542837E-2,4.5470178E-1,-1.058964E-1,-3.1530272E-2,3.7301656E-2,7.1895644E-2,-1.2180881E-3,-3.5327915E-2,3.166693E-2],"categories":[],"categories_nodes":[],"categories_segments":[],"categories_sizes":[],"default_left":[0,0,0,0,0,0,0,0,0,0,0,0,0,0,0,0,0],"id":54,"left_children":[1,3,5,7,9,-1,-1,11,-1,13,15,-1,-1,-1,-1,-1,-1],"loss_changes":[5.273316E-1,8.414571E-1,3.4058127E-1,5.034462E-1,1.0246611E0,0E0,0E0,5.0685555E-1,0E0,9.4633806E-1,7.560149E-1,0E0,0E0,0E0,0E0,0E0,0E0],"parents":[2147483647,0,0,1,1,2,2,3,3,4,4,7,7,9,9,10,10],"right_children":[2,4,6,8,10,-1,-1,12,-1,14,16,-1,-1,-1,-1,-1,-1],"split_conditions":[1.3066376E0,-8.3336025E-1,3.5792968E-1,1.3908583E-1,7.03949E-1,4.9543544E-3,-6.1007567E-2,-5.757756E-1,-5.1542837E-2,4.8032385E-1,9.900495E-1,-3.1530272E-2,3.7301656E-2,7.1895644E-2,-1.2180881E-3,-3.5327915E-2,3.166693E-2],"split_indices":[16,37,20,12,23,0,0,22,0,14,7,0,0,0,0,0,0],"split_type":[0,0,0,0,0,0,0,0,0,0,0,0,0,0,0,0,0],"sum_hessian":[1.8293028E1,1.6226933E1,2.0660956E0,4.4656E0,1.17613325E1,1.0539793E0,1.0121163E0,2.3381462E0,2.127454E0,6.5993834E0,5.161949E0,1.0028838E0,1.3352624E0,3.869402E0,2.7299817E0,3.359287E0,1.8026621E0],"tree_param":{"num_deleted":"0","num_feature":"42","num_nodes":"17","size_leaf_vector":"1"}},{"base_weights":[1.2905032E-2,4.2766552E-2,-4.895668E-2,9.678882E-2,-3.0383345E-1,2.86896E-1,-2.6582333E-1,1.9579457E-2,-4.469778E-1,-7.955364E-3,4.9263664E-2,2.5664626E-2,-5.4569203E-2,-6.351846E-2,3.772447E-4],"categories":[],"categories_nodes":[],"categories_segments":[],"categories_sizes":[],"default_left":[0,0,0,0,0,0,0,0,0,0,0,0,0,0,0],"id":55,"left_children":[1,-1,3,5,7,9,11,-1,13,-1,-1,-1,-1,-1,-1],"loss_changes":[5.070511E-1,0E0,6.751847E-1,8.9096236E-1,5.571065E-1,6.6000956E-1,8.103302E-1,0E0,4.612093E-1,0E0,0E0,0E0,0E0,0E0,0E0],"parents":[2147483647,0,0,2,2,3,3,4,4,5,5,6,6,8,8],"right_children":[2,-1,4,6,8,10,12,-1,14,-1,-1,-1,-1,-1,-1],"split_conditions":[-1.2849786E0,4.2766552E-2,6.172939E-1,7.9836893E-1,-9.377042E-1,-8.045488E-1,-5.6612587E-1,1.9579457E-2,3.2805604E-1,-7.955364E-3,4.9263664E-2,2.5664626E-2,-5.4569203E-2,-6.351846E-2,3.772447E-4],"split_indices":[40,0,23,36,18,36,23,0,33,0,0,0,0,0,0],"split_type":[0,0,0,0,0,0,0,0,0,0,0,0,0,0,0],"sum_hessian":[1.7946058E1,1.5617616E0,1.6384296E1,1.0818332E1,5.565965E0,7.234368E0,3.583964E0,1.15762E0,4.408345E0,2.8217719E0,4.412596E0,1.2790887E0,2.3048754E0,2.8212044E0,1.5871408E0],"tree_param":{"num_deleted":"0","num_feature":"42","num_nodes":"15","size_leaf_vector":"1"}},{"base_weights":[1.24198785E-2,-1.9234328E-1,1.3649553E-1,1.1553501E-1,-4.7444808E-1,3.026911E-1,-2.6189345E-1,3.9378002E-2,-2.8171599E-2,-3.205241E-3,-6.2363125E-2,-2.8767137E-2,4.613714E-1,-4.6919487E-2,1.3358968E-2,-4.4478136E-3,6.398953E-2],"categories":[],"categories_nodes":[],"categories_segments":[],"categories_sizes":[],"default_left":[0,0,0,0,0,0,0,0,0,0,0,0,0,0,0,0,0],"id":56,"left_children":[1,3,5,7,9,11,13,-1,-1,-1,-1,-1,15,-1,-1,-1,-1],"loss_changes":[5.007273E-1,7.028882E-1,8.879618E-1,5.94186E-1,2.4991834E-1,9.8355216E-1,4.013985E-1,0E0,0E0,0E0,0E0,0E0,7.0958686E-1,0E0,0E0,0E0,0E0],"parents":[2147483647,0,0,1,1,2,2,3,3,4,4,5,5,6,6,12,12],"right_children":[2,4,6,8,10,12,14,-1,-1,-1,-1,-1,16,-1,-1,-1,-1],"split_conditions":[-6.7387724E-1,5.4227334E-2,1.0332768E0,3.9527503E-1,-4.7292194E-1,-1.2847687E0,1.1089475E-1,3.9378002E-2,-2.8171599E-2,-3.205241E-3,-6.2363125E-2,-2.8767137E-2,-1.0057755E0,-4.6919487E-2,1.3358968E-2,-4.4478136E-3,6.398953E-2],"split_indices":[41,6,0,18,20,26,39,0,0,0,0,0,30,0,0,0,0],"split_type":[0,0,0,0,0,0,0,0,0,0,0,0,0,0,0,0,0],"sum_hessian":[1.767555E1,6.4616394E0,1.1213911E1,3.3720107E0,3.0896285E0,8.0823965E0,3.1315138E0,1.9881771E0,1.3838338E0,1.0854952E0,2.0041332E0,1.5400004E0,6.5423965E0,1.932281E0,1.1992327E0,1.9024991E0,4.6398973E0],"tree_param":{"num_deleted":"0","num_feature":"42","num_nodes":"17","size_leaf_vector":"1"}},{"base_weights":[8.471111E-3,3.790461E-2,-5.9604883E-2,-2.7251655E-1,1.0047507E-1,2.6781509E-2,-5.320234E-1,-6.980423E-2,6.1118532E-2,-2.7262783E-2,4.6666533E-2,-7.0872093E-3,-6.718312E-2,-3.6548935E-2,2.528503E-2],"categories":[],"categories_nodes":[],"categories_segments":[],"categories_sizes":[],"default_left":[0,0,0,0,0,0,0,0,0,0,0,0,0,0,0],"id":57,"left_children":[1,-1,3,5,7,9,11,13,-1,-1,-1,-1,-1,-1,-1],"loss_changes":[4.8562163E-1,0E0,5.8531594E-1,5.8085036E-1,9.1881406E-1,6.9880646E-1,2.0738494E-1,8.988869E-1,0E0,0E0,0E0,0E0,0E0,0E0,0E0],"parents":[2147483647,0,0,2,2,3,3,4,4,5,5,6,6,7,7],"right_children":[2,-1,4,6,8,10,12,14,-1,-1,-1,-1,-1,-1,-1],"split_conditions":[-1.1630679E0,3.790461E-2,-4.2033827E-1,4.786545E-1,9.6231824E-1,2.710258E-1,-5.782308E-1,-3.1565122E-2,6.1118532E-2,-2.7262783E-2,4.6666533E-2,-7.0872093E-3,-6.718312E-2,-3.6548935E-2,2.528503E-2],"split_indices":[38,0,17,21,39,5,27,4,0,0,0,0,0,0,0],"split_type":[0,0,0,0,0,0,0,0,0,0,0,0,0,0,0],"sum_hessian":[1.7354298E1,1.984359E0,1.536994E1,6.295001E0,9.074939E0,3.3398438E0,2.955157E0,7.4532275E0,1.621711E0,2.2134647E0,1.1263791E0,1.0380639E0,1.9170933E0,3.8198793E0,3.6333482E0],"tree_param":{"num_deleted":"0","num_feature":"42","num_nodes":"15","size_leaf_vector":"1"}},{"base_weights":[9.641475E-3,7.3292695E-2,-3.759243E-2,4.0574116E-1,-3.539959E-2,-2.2968296E-3,6.645017E-2,-1.711199E-1,4.4296497E-1,-3.6936324E-2,2.1656899E-2,5.9552707E-2,5.548721E-3],"categories":[],"categories_nodes":[],"categories_segments":[],"categories_sizes":[],"default_left":[0,0,0,0,0,0,0,0,0,0,0,0,0],"id":58,"left_children":[1,3,-1,5,7,-1,-1,9,11,-1,-1,-1,-1],"loss_changes":[4.7138882E-1,6.054989E-1,0E0,4.7130787E-1,9.359291E-1,0E0,0E0,9.286137E-1,1.5651768E-1,0E0,0E0,0E0,0E0],"parents":[2147483647,0,0,1,1,3,3,4,4,7,7,8,8],"right_children":[2,4,-1,6,8,-1,-1,10,12,-1,-1,-1,-1],"split_conditions":[1.5213399E0,-9.292183E-1,-3.759243E-2,-3.9443934E-1,5.7433313E-1,-2.2968296E-3,6.645017E-2,2.892553E-1,3.1166488E-1,-3.6936324E-2,2.1656899E-2,5.9552707E-2,5.548721E-3],"split_indices":[26,15,0,35,26,0,0,29,23,0,0,0,0],"split_type":[0,0,0,0,0,0,0,0,0,0,0,0,0],"sum_hessian":[1.7084965E1,1.5359283E1,1.7256823E0,3.110995E0,1.2248288E1,1.5139498E0,1.5970453E0,1.0041595E1,2.206693E0,6.675414E0,3.366181E0,1.1980509E0,1.0086421E0],"tree_param":{"num_deleted":"0","num_feature":"42","num_nodes":"13","size_leaf_vector":"1"}},{"base_weights":[1.3281608E-2,-1.4095767E-1,1.732478E-1,-4.7048774E-1,8.8505335E-2,-3.183949E-2,2.9873222E-1,-9.6041104E-4,-6.2887274E-2,4.086614E-1,-1.7219518E-1,-6.602776E-2,5.393423E-1,6.002715E-2,-2.2469663E-4,2.604257E-2,-4.3509316E-2,3.1981472E-2,-3.582243E-2,7.128865E-2,8.035748E-3],"categories":[],"categories_nodes":[],"categories_segments":[],"categories_sizes":[],"default_left":[0,0,0,0,0,0,0,0,0,0,0,0,0,0,0,0,0,0,0,0,0],"id":59,"left_children":[1,3,5,7,9,-1,11,-1,-1,13,15,17,19,-1,-1,-1,-1,-1,-1,-1,-1],"loss_changes":[4.6529192E-1,7.712107E-1,6.6393113E-1,2.9463297E-1,6.1535454E-1,0E0,7.255489E-1,0E0,0E0,2.5542653E-1,6.0265297E-1,5.672731E-1,3.286991E-1,0E0,0E0,0E0,0E0,0E0,0E0,0E0,0E0],"parents":[2147483647,0,0,1,1,2,2,3,3,4,4,6,6,9,9,10,10,11,11,12,12],"right_children":[2,4,6,8,10,-1,12,-1,-1,14,16,18,20,-1,-1,-1,-1,-1,-1,-1,-1],"split_conditions":[1.0198237E-1,-3.0737686E-1,-1.1181115E0,-1.2267493E0,-2.8290913E-1,-3.183949E-2,-4.600522E-1,-9.6041104E-4,-6.2887274E-2,3.9025626E-1,-6.725471E-2,2.863806E-1,9.019771E-2,6.002715E-2,-2.2469663E-4,2.604257E-2,-4.3509316E-2,3.1981472E-2,-3.582243E-2,7.128865E-2,8.035748E-3],"split_indices":[22,4,9,4,18,0,14,0,0,35,0,23,8,0,0,0,0,0,0,0,0],"split_type":[0,0,0,0,0,0,0,0,0,0,0,0,0,0,0,0,0,0,0,0,0],"sum_hessian":[1.686852E1,8.648486E0,8.220035E0,3.1189706E0,5.5295157E0,1.3588382E0,6.861197E0,1.0689824E0,2.049988E0,2.2270331E0,3.3024828E0,3.0154371E0,3.8457599E0,1.2045165E0,1.0225165E0,1.2518545E0,2.0506284E0,1.2587506E0,1.7566864E0,2.3892083E0,1.4565514E0],"tree_param":{"num_deleted":"0","num_feature":"42","num_nodes":"21","size_leaf_vector":"1"}},{"base_weights":[1.3658989E-2,4.1343626E-2,-4.7270577E-2,4.1781552E-2,-4.2279425E-1,-3.8415834E-2,1.257261E-1,-4.41111E-3,-5.992269E-2,2.249265E-2,-3.6234487E-2],"categories":[],"categories_nodes":[],"categories_segments":[],"categories_sizes":[],"default_left":[0,0,0,0,0,0,0,0,0,0,0],"id":60,"left_children":[1,-1,3,5,7,-1,9,-1,-1,-1,-1],"loss_changes":[4.4681954E-1,0E0,5.566982E-1,5.4669833E-1,1.8600786E-1,0E0,6.8175954E-1,0E0,0E0,0E0,0E0],"parents":[2147483647,0,0,2,2,3,3,4,4,6,6],"right_children":[2,-1,4,6,8,-1,10,-1,-1,-1,-1],"split_conditions":[-1.2849786E0,4.1343626E-2,1.2325304E0,-1.1883888E0,-5.4221255E-1,-3.8415834E-2,1.3040929E0,-4.41111E-3,-5.992269E-2,2.249265E-2,-3.6234487E-2],"split_indices":[40,0,23,9,38,0,16,0,0,0,0],"split_type":[0,0,0,0,0,0,0,0,0,0,0],"sum_hessian":[1.6541328E1,1.4224864E0,1.5118841E1,1.293917E1,2.179672E0,1.5414451E0,1.1397724E1,1.090059E0,1.0896131E0,9.920529E0,1.4771951E0],"tree_param":{"num_deleted":"0","num_feature":"42","num_nodes":"11","size_leaf_vector":"1"}},{"base_weights":[8.058299E-3,-2.641606E-1,9.939659E-2,1.6422294E-2,-4.4057906E-1,-1.12562194E-1,3.3022612E-1,-6.415031E-4,-6.294635E-2,-2.4509346E-1,3.8683537E-2,6.410605E-1,-1.4066781E-1,8.772798E-3,-5.1096287E-2,7.563395E-2,1.3127156E-2,1.9430395E-2,-4.400844E-2],"categories":[],"categories_nodes":[],"categories_segments":[],"categories_sizes":[],"default_left":[0,0,0,0,0,0,0,0,0,0,0,0,0,0,0,0,0,0,0],"id":61,"left_children":[1,3,5,-1,7,9,11,-1,-1,13,-1,15,17,-1,-1,-1,-1,-1,-1],"loss_changes":[4.5814064E-1,4.22817E-1,7.090535E-1,0E0,2.8759128E-1,6.179883E-1,1.0895693E0,0E0,0E0,6.517601E-1,0E0,1.5299773E-1,4.4005457E-1,0E0,0E0,0E0,0E0,0E0,0E0],"parents":[2147483647,0,0,1,1,2,2,4,4,5,5,6,6,9,9,11,11,12,12],"right_children":[2,4,6,-1,8,10,12,-1,-1,14,-1,16,18,-1,-1,-1,-1,-1,-1],"split_conditions":[-9.7081167E-1,-3.8541695E-1,9.900495E-1,1.6422294E-2,-2.1883427E-1,8.9042133E-1,8.742527E-1,-6.415031E-4,-6.294635E-2,-1.4828117E-1,3.8683537E-2,1.2561847E0,5.144192E-1,8.772798E-3,-5.1096287E-2,7.563395E-2,1.3127156E-2,1.9430395E-2,-4.400844E-2],"split_indices":[37,5,7,0,27,8,2,0,0,38,0,11,31,0,0,0,0,0,0],"split_type":[0,0,0,0,0,0,0,0,0,0,0,0,0,0,0,0,0,0,0],"sum_hessian":[1.6369844E1,3.6373127E0,1.2732532E1,1.0811547E0,2.556158E0,6.90468E0,5.827852E0,1.0883873E0,1.4677708E0,5.859021E0,1.0456587E0,3.2928748E0,2.534977E0,2.8994527E0,2.9595683E0,2.291144E0,1.0017309E0,1.3621416E0,1.1728354E0],"tree_param":{"num_deleted":"0","num_feature":"42","num_nodes":"19","size_leaf_vector":"1"}},{"base_weights":[8.320638E-3,-5.0307516E-2,4.2268097E-2,2.6544854E-1,-1.439907E-1,-1.7337544E-2,5.396309E-2,3.4194667E-2,-2.227738E-1,3.0601341E-2,-3.202737E-2],"categories":[],"categories_nodes":[],"categories_segments":[],"categories_sizes":[],"default_left":[0,0,0,0,0,0,0,0,0,0,0],"id":62,"left_children":[1,3,-1,5,7,-1,-1,-1,9,-1,-1],"loss_changes":[4.3568766E-1,5.0673705E-1,0E0,5.718976E-1,5.686089E-1,0E0,0E0,0E0,6.9986993E-1,0E0,0E0],"parents":[2147483647,0,0,1,1,3,3,4,4,8,8],"right_children":[2,4,-1,6,8,-1,-1,-1,10,-1,-1],"split_conditions":[1.3577601E0,-9.294975E-1,4.2268097E-2,-7.032811E-1,-1.1254752E0,-1.7337544E-2,5.396309E-2,3.4194667E-2,-1.1390877E0,3.0601341E-2,-3.202737E-2],"split_indices":[21,24,0,13,40,0,0,0,16,0,0],"split_type":[0,0,0,0,0,0,0,0,0,0,0],"sum_hessian":[1.6059256E1,1.4838356E1,1.2209002E0,2.9756284E0,1.1862727E1,1.2856433E0,1.6899852E0,1.1889403E0,1.0673787E1,1.328751E0,9.345036E0],"tree_param":{"num_deleted":"0","num_feature":"42","num_nodes":"11","size_leaf_vector":"1"}},{"base_weights":[1.4313998E-2,-2.5061107E-1,1.029804E-1,9.755051E-3,-4.914549E-2,4.2041275E-1,-4.6780586E-2,6.480265E-2,-7.04099E-3,-2.9163542E-1,2.0351638E-1,-4.9030833E-2,1.6223839E-2,5.1836263E-2,-1.9570496E-2],"categories":[],"categories_nodes":[],"categories_segments":[],"categories_sizes":[],"default_left":[0,0,0,0,0,0,0,0,0,0,0,0,0,0,0],"id":63,"left_children":[1,3,5,-1,-1,7,9,-1,-1,11,13,-1,-1,-1,-1],"loss_changes":[4.2261484E-1,4.2756113E-1,6.5504444E-1,0E0,0E0,5.3545153E-1,6.710478E-1,0E0,0E0,5.715572E-1,7.958509E-1,0E0,0E0,0E0,0E0],"parents":[2147483647,0,0,1,1,2,2,5,5,6,6,9,9,10,10],"right_children":[2,4,6,-1,-1,8,10,-1,-1,12,14,-1,-1,-1,-1],"split_conditions":[-9.7081167E-1,1.3908583E-1,-5.891285E-1,9.755051E-3,-4.914549E-2,6.8685025E-1,9.900495E-1,6.480265E-2,-7.04099E-3,2.171568E-1,8.742527E-1,-4.9030833E-2,1.6223839E-2,5.1836263E-2,-1.9570496E-2],"split_indices":[37,12,32,0,0,18,7,0,0,9,2,0,0,0,0],"split_type":[0,0,0,0,0,0,0,0,0,0,0,0,0,0,0],"sum_hessian":[1.589262E1,3.5272255E0,1.2365395E1,1.6855599E0,1.8416656E0,3.3844702E0,8.980924E0,2.0933945E0,1.2910756E0,4.4563293E0,4.524595E0,3.0437312E0,1.4125983E0,2.3627644E0,2.1618304E0],"tree_param":{"num_deleted":"0","num_feature":"42","num_nodes":"15","size_leaf_vector":"1"}},{"base_weights":[1.4340411E-2,-1.3778608E-1,1.7147727E-1,3.725173E-2,-2.5939795E-1,-1.7882729E-1,3.4460428E-1,-6.2234648E-2,2.5412155E-2,-4.703058E-2,1.9729374E-2,5.732541E-1,-1.519264E-2,-1.8349105E-2,4.686364E-2,7.350058E-2,9.596511E-3],"categories":[],"categories_nodes":[],"categories_segments":[],"categories_sizes":[],"default_left":[0,0,0,0,0,0,0,0,0,0,0,0,0,0,0,0,0],"id":64,"left_children":[1,3,5,-1,7,9,11,-1,13,-1,-1,15,-1,-1,-1,-1,-1],"loss_changes":[4.2125773E-1,6.5554667E-1,5.8487576E-1,0E0,8.285707E-1,4.7781652E-1,7.8142446E-1,0E0,5.82855E-1,0E0,0E0,2.6892054E-1,0E0,0E0,0E0,0E0,0E0],"parents":[2147483647,0,0,1,1,2,2,4,4,5,5,6,6,8,8,11,11],"right_children":[2,4,6,-1,8,10,12,-1,14,-1,-1,16,-1,-1,-1,-1,-1],"split_conditions":[1.0198237E-1,-1.1390877E0,-1.0210887E0,3.725173E-2,-3.0737686E-1,1.454669E-1,1.0769907E0,-6.2234648E-2,7.081856E-1,-4.703058E-2,1.9729374E-2,8.4304273E-1,-1.519264E-2,-1.8349105E-2,4.686364E-2,7.350058E-2,9.596511E-3],"split_indices":[22,16,30,0,4,36,38,0,8,0,0,27,0,0,0,0,0],"split_type":[0,0,0,0,0,0,0,0,0,0,0,0,0,0,0,0,0],"sum_hessian":[1.56340065E1,8.006217E0,7.627789E0,1.1437385E0,6.8624787E0,2.5120306E0,5.115759E0,2.4962492E0,4.3662295E0,1.2741812E0,1.2378494E0,3.396958E0,1.7188005E0,3.3658328E0,1.0003966E0,2.133845E0,1.2631131E0],"tree_param":{"num_deleted":"0","num_feature":"42","num_nodes":"17","size_leaf_vector":"1"}},{"base_weights":[1.6045902E-2,7.767574E-2,-3.4594044E-2,-1.4830494E-1,2.1038234E-1,3.554387E-2,-3.7389895E-1,3.768535E-1,-1.2593958E-1,1.019575E-2,-5.3930413E-2,5.2282E-2,-5.785312E-3,-5.234259E-2,2.3887962E-2],"categories":[],"categories_nodes":[],"categories_segments":[],"categories_sizes":[],"default_left":[0,0,0,0,0,0,0,0,0,0,0,0,0,0,0],"id":65,"left_children":[1,3,-1,5,7,-1,9,11,13,-1,-1,-1,-1,-1,-1],"loss_changes":[3.9106432E-1,4.740336E-1,0E0,8.2040703E-1,5.914751E-1,0E0,4.222319E-1,4.585526E-1,7.0023936E-1,0E0,0E0,0E0,0E0,0E0,0E0],"parents":[2147483647,0,0,1,1,3,3,4,4,6,6,7,7,8,8],"right_children":[2,4,-1,6,8,-1,10,12,14,-1,-1,-1,-1,-1,-1],"split_conditions":[1.5213399E0,-6.7754364E-1,-3.4594044E-2,-3.8541695E-1,7.693674E-1,3.554387E-2,-4.3419603E-1,1.0805428E0,-3.0164555E-1,1.019575E-2,-5.3930413E-2,5.2282E-2,-5.785312E-3,-5.234259E-2,2.3887962E-2],"split_indices":[26,35,0,5,28,0,38,21,27,0,0,0,0,0,0],"split_type":[0,0,0,0,0,0,0,0,0,0,0,0,0,0,0],"sum_hessian":[1.5324827E1,1.3766445E1,1.5583822E0,5.0498023E0,8.716642E0,1.3839413E0,3.665861E0,5.7500124E0,2.9666302E0,1.0445036E0,2.6213572E0,4.1528616E0,1.5971507E0,1.2116888E0,1.7549416E0],"tree_param":{"num_deleted":"0","num_feature":"42","num_nodes":"15","size_leaf_vector":"1"}},{"base_weights":[1.3193816E-2,-4.580584E-2,4.1256607E-2,1.8442205E-1,-1.6210178E-1,5.2970868E-2,-1.588902E-1,5.2439436E-2,-4.7706544E-1,-4.6400577E-2,2.7191563E-2,-2.5888562E-2,3.3202533E-2,-6.364035E-2,-3.115779E-3],"categories":[],"categories_nodes":[],"categories_segments":[],"categories_sizes":[],"default_left":[0,0,0,0,0,0,0,0,0,0,0,0,0,0,0],"id":66,"left_children":[1,3,-1,5,7,-1,9,11,13,-1,-1,-1,-1,-1,-1],"loss_changes":[3.9736083E-1,4.2868936E-1,0E0,7.3217106E-1,7.29666E-1,0E0,5.875897E-1,7.042885E-1,2.8740472E-1,0E0,0E0,0E0,0E0,0E0,0E0],"parents":[2147483647,0,0,1,1,3,3,4,4,6,6,7,7,8,8],"right_children":[2,4,-1,6,8,-1,10,12,14,-1,-1,-1,-1,-1,-1],"split_conditions":[1.3577601E0,-2.8290913E-1,4.1256607E-2,5.231064E-1,4.8301107E-1,5.2970868E-2,2.4456257E-2,-2.7605534E-1,5.150392E-1,-4.6400577E-2,2.7191563E-2,-2.5888562E-2,3.3202533E-2,-6.364035E-2,-3.115779E-3],"split_indices":[21,18,0,14,0,0,0,34,8,0,0,0,0,0,0],"split_type":[0,0,0,0,0,0,0,0,0,0,0,0,0,0,0],"sum_hessian":[1.5061862E1,1.3894517E1,1.1673454E0,4.466503E0,9.428014E0,1.9561586E0,2.5103443E0,6.103827E0,3.324187E0,1.4244334E0,1.0859109E0,2.9230194E0,3.1808076E0,2.1343145E0,1.1898726E0],"tree_param":{"num_deleted":"0","num_feature":"42","num_nodes":"15","size_leaf_vector":"1"}},{"base_weights":[1.3062114E-2,1.0240597E-1,-2.3769209E-1,-7.8584276E-2,3.4357855E-1,1.5746858E-2,-4.1946685E-1,-2.4611077E-1,2.3862801E-1,-6.8203853E-3,4.9444896E-1,-5.373739E-2,-7.5533167E-3,-4.6527218E-2,9.720566E-3,-1.2540947E-2,4.95176E-2,6.626069E-3,6.560066E-2],"categories":[],"categories_nodes":[],"categories_segments":[],"categories_sizes":[],"default_left":[0,0,0,0,0,0,0,0,0,0,0,0,0,0,0,0,0,0,0],"id":67,"left_children":[1,3,5,7,9,-1,11,13,15,-1,17,-1,-1,-1,-1,-1,-1,-1,-1],"loss_changes":[3.7846434E-1,5.6621456E-1,3.859512E-1,4.770031E-1,3.743103E-1,0E0,9.41776E-2,4.6981782E-1,3.6356652E-1,0E0,2.424711E-1,0E0,0E0,0E0,0E0,0E0,0E0,0E0,0E0],"parents":[2147483647,0,0,1,1,2,2,3,3,4,4,6,6,7,7,8,8,10,10],"right_children":[2,4,6,8,10,-1,12,14,16,-1,18,-1,-1,-1,-1,-1,-1,-1,-1],"split_conditions":[1.0629894E0,1.2238581E-1,-5.8446754E-2,2.6214585E-1,-9.0835696E-1,1.5746858E-2,5.7316756E-1,1.7393807E-1,-2.7856323E-1,-6.8203853E-3,-3.4610558E-1,-5.373739E-2,-7.5533167E-3,-4.6527218E-2,9.720566E-3,-1.2540947E-2,4.95176E-2,6.626069E-3,6.560066E-2],"split_indices":[20,17,23,33,29,0,33,23,37,0,12,0,0,0,0,0,0,0,0],"split_type":[0,0,0,0,0,0,0,0,0,0,0,0,0,0,0,0,0,0,0],"sum_hessian":[1.4806709E1,1.1353174E1,3.4535344E0,6.8709574E0,4.4822173E0,1.1302332E0,2.323301E0,4.6430235E0,2.2279336E0,1.34879E0,3.1334274E0,1.3113207E0,1.0119803E0,2.6171174E0,2.0259063E0,1.1323346E0,1.0955989E0,1.2446845E0,1.8887429E0],"tree_param":{"num_deleted":"0","num_feature":"42","num_nodes":"19","size_leaf_vector":"1"}},{"base_weights":[1.3364101E-2,-1.7109221E-1,1.2908621E-1,2.9679257E-2,-3.1484163E-1,2.7374947E-1,-2.1096766E-1,-4.9717093E-1,1.4178919E-2,-2.0393588E-2,4.3064785E-1,-3.8488455E-2,1.1857145E-2,2.319616E-3,-7.121742E-2,-6.922549E-3,6.141776E-2],"categories":[],"categories_nodes":[],"categories_segments":[],"categories_sizes":[],"default_left":[0,0,0,0,0,0,0,0,0,0,0,0,0,0,0,0,0],"id":68,"left_children":[1,3,5,-1,7,9,11,13,-1,-1,15,-1,-1,-1,-1,-1,-1],"loss_changes":[3.5464555E-1,5.2632916E-1,5.567467E-1,0E0,5.2081233E-1,6.537911E-1,2.5150767E-1,4.7380555E-1,0E0,0E0,5.9349465E-1,0E0,0E0,0E0,0E0,0E0,0E0],"parents":[2147483647,0,0,1,1,2,2,4,4,5,5,6,6,7,7,10,10],"right_children":[2,4,6,-1,8,10,12,14,-1,-1,16,-1,-1,-1,-1,-1,-1],"split_conditions":[-6.7387724E-1,-1.0299101E0,1.0332768E0,2.9679257E-2,2.558544E-1,-1.198774E0,1.1089475E-1,-6.5126073E-1,1.4178919E-2,-2.0393588E-2,-1.0057755E0,-3.8488455E-2,1.1857145E-2,2.319616E-3,-7.121742E-2,-6.922549E-3,6.141776E-2],"split_indices":[41,28,0,0,22,26,39,32,0,0,30,0,0,0,0,0,0],"split_type":[0,0,0,0,0,0,0,0,0,0,0,0,0,0,0,0,0],"sum_hessian":[1.4579736E1,5.436192E0,9.143543E0,1.027422E0,